{
  "t_": 1281901.0,
  "intercept_": [
    0.0
  ],
  "coef_": [
    -0.01668677710479146,
    0.0,
    -0.015326326260328257,
    0.004250803122389277,
    0.053412968632925155,
    0.0,
    -0.003235815721668244,
    0.0,
    0.016951370000041138,
    -0.01652775622236435,
    0.0,
    0.016819339948555563,
    -0.012067610014888677,
    -0.01606380893422127,
    -0.0034465735867597225,
    0.0,
    0.0330894320160265,
    -0.010499286801400628,
    0.023883422451707333,
    0.047058145325313,
    0.0,
    -0.0371259945692508,
    0.0,
    0.0,
    0.0,
    -0.00548866733308652,
    0.0,
    0.0,
    0.017547393286238794,
    0.0,
    -0.005931670108014501,
    -0.00394201399038642,
    -0.014453813672852376,
    0.005008139948713235,
    0.00895751746630847,
    0.0,
    -0.014693430319020075,
    -0.027759732582646447,
    -0.01111777653798255,
    0.017800118756354823,
    -0.006346764728876905,
    -0.03117751197176573,
    0.0,
    -0.010468349825207996,
    0.0016473656246426983,
    0.0,
    -0.005598523455055395,
    0.004817191841025893,
    0.0,
    -0.0034060775567559425,
    -0.002118400745958402,
    -0.022369953125265577,
    0.0,
    0.01668117207606036,
    0.0,
    0.01707440096933203,
    0.0,
    -0.0055646667250528236,
    0.0,
    0.006650568052457307,
    0.0,
    -0.0003597923268537964,
    0.0035174517110148095,
    0.02798021930832326,
    -0.008283956168073378,
    -0.005839851349546203,
    -0.007891988309340594,
    0.0,
    -0.005907373210755122,
    0.030379144350403346,
    0.0,
    -0.0006771864888929629,
    0.0,
    -0.01264170368078533,
    -0.009805345925475098,
    -0.010735478584968133,
    -0.033602146665260776,
    -0.0076920634100964445,
    -0.0235951399818855,
    0.0,
    0.0,
    0.004404627077066044,
    -0.010153811274109836,
    0.0,
    0.0,
    -0.03232499889203053,
    0.02026061930432311,
    -0.012947220188656646,
    -0.00014573380856331873,
    -0.01732195472123072,
    0.0,
    -0.01610694760833455,
    -0.01742642129893651,
    0.00029342806096395793,
    -0.0062576995142822065,
    0.0005256996398687086,
    -0.010674175224662975,
    0.021869768234421345,
    -0.009238470096645532,
    0.008103114429276616,
    0.0,
    0.014240554416687676,
    0.0,
    0.004974943333173986,
    0.007269309940272881,
    0.0,
    -0.0035743131535984083,
    0.004092327928807977,
    -0.021886997096838747,
    -0.0026568702351256936,
    0.03061956858596362,
    -0.002737242485208267,
    -0.030994163849818637,
    -0.0885676557070114,
    0.00450038585566844,
    -0.01173159181145418,
    0.0,
    0.0,
    0.010003378242928082,
    -0.00882692200840121,
    0.009680276933678294,
    -0.01572813271385291,
    0.0,
    0.0,
    0.01808503704130512,
    0.01743385545684616,
    0.010877128037312219,
    -0.002525424461395709,
    -0.02200246031932384,
    0.029799552462228904,
    0.0583961890817918,
    0.0,
    -0.00157046323372253,
    0.0,
    0.0,
    -0.00042937036792384264,
    -0.020319551173068415,
    0.014761176741063153,
    0.0,
    -0.019659483768386724,
    -0.028972630617557282,
    -0.008176012544491748,
    -0.007469305126404685,
    -0.015051301256750901,
    0.0,
    0.017456144562024302,
    0.021516261260216094,
    0.0,
    0.0,
    -0.03681329503379216,
    0.0,
    -0.020558897655854034,
    -0.02094830664450374,
    0.011692010929431187,
    0.040801993271360346,
    -0.007344321446328404,
    -0.037435286096769604,
    0.0,
    0.0,
    -0.021126299945718706,
    -0.008206392315200128,
    -0.024752353076821988,
    0.014940400339310508,
    0.0031694377111453047,
    0.0,
    0.0010155665896136759,
    -0.004696214600353989,
    0.03684887806038709,
    0.025426245161992142,
    0.020248540100753398,
    0.004995985503933918,
    0.006712263882043786,
    -0.007502679259055054,
    0.002559574942089419,
    -0.024759563421292492,
    0.009558679944575318,
    0.013213454866456788,
    0.028331998728654464,
    -0.009039236041766367,
    0.0,
    -0.018053963691066134,
    0.0,
    0.012278536359233368,
    0.0069406756677429645,
    0.02881219387841112,
    0.008178740860412214,
    0.0,
    0.0014692885970527141,
    0.0,
    0.011309557944062376,
    0.0,
    -0.007081000561508177,
    0.0,
    0.0,
    0.0038857451704976164,
    0.02640492850623113,
    0.0,
    -0.016493957368163198,
    -0.013451663123351625,
    -0.0026426362636677637,
    0.0,
    0.0,
    -0.024884525607002595,
    0.0,
    -0.015814447077607673,
    0.0033747821126121264,
    0.04540132347998613,
    0.02887994074680349,
    0.0,
    -0.012823463227173313,
    0.0,
    0.0,
    0.0,
    -0.001466797460780311,
    0.0,
    0.010080968803736124,
    0.0,
    0.0,
    0.020991044390119895,
    0.0,
    0.04687745003963466,
    0.014602421253974566,
    0.014119642708361694,
    0.008396738608839124,
    -0.018675435429791498,
    0.003823523989617952,
    -0.010304273145321625,
    0.0,
    -0.015178094915398408,
    -0.024630085603922998,
    0.028259683185855977,
    -0.018107951144717555,
    0.0,
    -0.00102239035630747,
    0.0016821947931835285,
    0.0,
    0.0,
    -0.008543867960055563,
    0.013137329142836742,
    0.014248118689523602,
    0.0,
    0.0,
    -0.037907994863739795,
    0.044353496319862136,
    0.0,
    -0.007045936251973353,
    -0.02738557941596494,
    0.003928303234411698,
    0.013270741195178862,
    0.0,
    -0.023087003194178453,
    0.026425601203717924,
    0.03895410330648854,
    0.0,
    0.012385581903199386,
    -0.032305774667690496,
    0.0,
    -0.02992033134542518,
    0.009685977579870712,
    0.02292681712090153,
    0.016291448608687895,
    0.0,
    0.0,
    0.013796407958073553,
    0.0,
    0.0,
    0.027121804833110205,
    -0.014614264056401692,
    -0.0033704855022019596,
    -0.012218878707713264,
    0.026184106071376615,
    0.002030982496946872,
    -0.0028698015137537053,
    0.047236870793704505,
    0.0,
    0.0008342190946172619,
    0.02105830205723925,
    0.010050790410045496,
    0.0,
    -0.006028245388679546,
    -0.0069680714653220475,
    0.008394140776786671,
    -0.011725804585048172,
    0.0,
    0.0,
    -0.014302610055792843,
    -0.00717615321501004,
    0.0018640810435556845,
    0.0,
    0.022614887877565038,
    0.005064685976665852,
    0.0041281587312918975,
    -0.0369036251508301,
    0.0,
    0.0,
    0.03486007989928504,
    0.0017319484264909303,
    -0.00517007629328014,
    0.01667985270221391,
    0.0,
    0.01037942734894201,
    0.0,
    0.0033005473757230807,
    0.0,
    0.0012179246307703168,
    0.0,
    0.0,
    0.008962200261844301,
    0.009951797758826781,
    0.0,
    0.0,
    0.0,
    0.048443563036014534,
    0.01605625790073627,
    0.0,
    0.02324579883277797,
    0.010165230839723354,
    0.0026239274419319718,
    0.00975102762365617,
    0.04053251276830311,
    -0.005468974943331451,
    0.0,
    -0.01669541175283707,
    -0.014840237840298634,
    -0.010268272452228675,
    0.0,
    0.0005446409012463266,
    0.03029808054585201,
    0.013953830319616925,
    0.048077293798629725,
    -0.027598709503531594,
    0.0,
    0.0,
    0.03421123860478991,
    0.0,
    -8.580384689918424e-05,
    0.007061731344083997,
    0.01604595494102457,
    0.0,
    0.0,
    -0.014659666183613064,
    0.0,
    0.01947851420377802,
    0.022060695512679872,
    -0.0029621159591631248,
    0.018411974335893526,
    -0.005403741573119303,
    -0.018331298765176824,
    0.0028330642633728398,
    0.0,
    -0.017354722228365208,
    0.024793071108800323,
    0.0,
    -0.0046240029432565236,
    0.0,
    -0.010139574257412525,
    0.011317650706404017,
    -0.03923189598097698,
    -0.020973172325470548,
    -0.04442342501175207,
    0.0,
    0.014364583280272734,
    0.004920543828130759,
    0.0,
    0.01088519676629706,
    -0.0021498711255136483,
    -0.006592289750710025,
    0.0018670834843693394,
    0.0,
    0.0,
    -0.006091339083492319,
    0.00039079684170103667,
    0.04665564903700207,
    -0.03533251193770778,
    -0.01176352818507596,
    0.03946879899839557,
    0.015150960621732983,
    0.013331776837238336,
    -0.013516600789358875,
    0.010861720813962085,
    0.003579989198325747,
    -0.03504483486739607,
    -0.0027503718520218287,
    0.0,
    0.020102128430191307,
    0.014554410100000189,
    -0.007677192618930613,
    -0.008920057795434873,
    0.001963215520170261,
    0.03350449237325548,
    0.0009193058772678165,
    0.015342474780340669,
    -0.017736585273822908,
    0.0363593536039436,
    0.014080570600022622,
    0.02416984496190386,
    0.0,
    0.0,
    0.006011421066092703,
    0.009492030162831042,
    0.015304002670023607,
    0.0,
    0.0,
    0.0,
    -0.0058121578824986125,
    -0.007569981276725927,
    -0.015080355768912578,
    0.006378092473677218,
    -0.037663383726723454,
    -0.03528623425744908,
    0.009658269418348575,
    0.0,
    0.008570778645707851,
    0.0,
    0.004059385934253797,
    -0.05964381253069484,
    -0.009363321598500146,
    0.0016494079341405007,
    -0.01884093916405592,
    -0.005250466310702319,
    0.007301065776077094,
    0.02464828347142595,
    0.0,
    0.01603912868550222,
    0.03132637463190288,
    -0.00837621368676839,
    0.0,
    0.024537187985714283,
    -0.0034923288639777334,
    -0.01734934977851617,
    -0.02011741201469648,
    0.013997997003644617,
    0.0,
    -0.010067426510020658,
    0.025806295866943964,
    0.03211451502990288,
    0.03643686698816909,
    0.0035838968039193773,
    0.0,
    0.0,
    0.002577602722764834,
    0.0,
    -0.020356476970114782,
    -0.007309753343323536,
    -0.0017708712487229286,
    0.0,
    0.0,
    0.004135615576346404,
    0.0,
    0.0019088722739287925,
    0.032918890844759574,
    -0.009614446424200325,
    0.0,
    0.023385998223376333,
    0.006690198516565685,
    -0.0008667835928926029,
    -0.008012084365294513,
    -0.0038856262981073527,
    -0.0028238011120332715,
    0.001829254394876942,
    0.0,
    -0.009594487176914298,
    0.0,
    -0.01098437788410777,
    -0.013259768545223708,
    -0.01913263659128527,
    0.012363929916154247,
    0.0,
    -0.01163544549227787,
    0.034916282416929345,
    0.0,
    0.007855256025389007,
    0.0,
    0.007810715586698512,
    0.02497268975531849,
    0.0032291480576771467,
    -0.024042731858589367,
    0.03727757848675819,
    -0.011013749767590297,
    -0.011173693510856394,
    0.005639247399238831,
    0.0,
    0.05311519040871303,
    0.0,
    -0.00020566487799113332,
    0.0035026940136295977,
    0.0,
    0.0,
    0.001244567270561106,
    0.006489973501944478,
    0.0,
    -0.0020010782508247836,
    -0.019017112674602068,
    -0.009144364837054789,
    0.0021739426798610437,
    0.03447112060020762,
    0.0,
    0.0,
    -0.0015319427005219303,
    -0.011478980387339374,
    0.007249805542376335,
    0.0,
    0.003322853326594292,
    0.0,
    0.0,
    0.0017354231499772427,
    0.005014645269697178,
    0.014327223348267313,
    0.001554928158084686,
    -0.002968033267679823,
    0.02169749708567547,
    -0.030251371369543534,
    0.029441368637994462,
    -0.010668482525866135,
    0.003832743173193016,
    0.0,
    0.0957490990301911,
    -0.0029891465968122696,
    0.0006990850881457999,
    0.0035705663182108672,
    0.01411407269416006,
    -0.04173965624795307,
    -0.030538453495741986,
    0.02131991099804605,
    -0.013961363278624772,
    0.0,
    0.009463049417825466,
    -0.007004383426903796,
    0.007693038916650358,
    -0.021093714103585515,
    0.006683621477315983,
    0.0,
    -0.017675124905799876,
    -0.012739184141407034,
    0.0,
    0.026931552391450328,
    -0.030615102288838746,
    0.0012911457546770325,
    0.0,
    0.0004676544914400305,
    0.04531934792460822,
    0.018991467165423024,
    0.0,
    -0.020590641100116557,
    0.004244332280446002,
    0.0,
    -0.004683980942887656,
    0.0,
    0.02884725086722685,
    0.0,
    0.0,
    0.03337616117638708,
    0.016745370299946747,
    0.0,
    0.04214165673004183,
    0.0,
    0.0,
    -0.05511882661057338,
    0.0713195280090594,
    0.0059527642438073234,
    -0.020098400762080717,
    -0.02916615529150205,
    -0.006663035549192565,
    -0.022913029749633634,
    0.0,
    0.0,
    0.0014419847495632811,
    0.010218748973872831,
    0.00256415270623333,
    0.011852109707937382,
    0.017316048399274378,
    0.0,
    0.0028983140006192927,
    0.0,
    -0.01099300469315146,
    0.014569412922921729,
    0.007305784898511095,
    -0.00701959595509227,
    0.012086068923871854,
    0.0,
    0.0,
    0.0,
    0.015132611944203176,
    -0.0013728464234186593,
    0.0,
    0.017850542776133394,
    0.0,
    0.0,
    -0.017831828175936967,
    0.03340893934228024,
    0.01788256972686936,
    0.003246455128814156,
    -0.022033867970339086,
    0.01834171094499515,
    0.002277361587453167,
    0.007892549824009833,
    0.0,
    -0.04400230557777257,
    -0.005967700839916421,
    -0.0011252790493014495,
    0.02667129471127942,
    0.0,
    0.04077196900379253,
    -0.009834990127838913,
    0.026053171907227075,
    3.519207727026303e-05,
    -0.001289845253382708,
    -0.04842304026762411,
    -0.017555680836224503,
    -0.01156579790060447,
    0.014536057031200656,
    0.0,
    -0.012253800101822655,
    0.015322975045123418,
    -0.004874637831371192,
    -0.03129608971033703,
    -0.04843299250305683,
    0.0,
    -0.008062535807194831,
    -0.0036068013304409695,
    0.0023638172365763096,
    0.07999893620426743,
    -0.012852569791685045,
    0.0,
    0.005279424191037871,
    0.004894209028557693,
    0.03160872267113165,
    -0.010375173777292407,
    0.0579125905347926,
    0.0009150770365685427,
    -0.009199857595188009,
    0.03860423470544518,
    0.01594284998124532,
    0.02967583099125925,
    0.0,
    -0.03423001794043554,
    -0.02096653086432687,
    -0.0051819750012639006,
    -0.030191562299629972,
    0.019299031017363005,
    0.0028718201644403495,
    0.0003920240204081146,
    0.04052645253763003,
    0.0,
    0.0061007668505132905,
    0.00651594326809662,
    0.00704252327637054,
    0.021136836515147802,
    -0.0024572988422465053,
    -0.006635213805422003,
    -0.03031725331528909,
    -0.012445408926360568,
    -0.016875721026569104,
    0.0,
    -0.01692696761590642,
    0.006451936838314541,
    -0.010971963499404894,
    0.002158667699886422,
    -0.004268905453491992,
    -0.01103853044197908,
    0.0,
    0.0,
    -0.005799349922812072,
    0.0,
    -0.028025281345252666,
    -0.008423622098455692,
    -0.002919152831474773,
    -0.043674102246841186,
    0.0,
    -0.007629633769549623,
    -0.021447304962813215,
    0.03838432644749913,
    0.013080777031245588,
    0.01761862312403227,
    0.02535750532691922,
    0.02114177745187682,
    -0.005844713657421922,
    -0.004253076447180527,
    -0.02473930102706578,
    0.008543894323394136,
    0.002547461994967509,
    -0.0039146031984789815,
    0.013529361071338676,
    0.02151866781313233,
    -0.011915633354064781,
    0.001404202989443985,
    -0.0010113420538871655,
    0.0,
    -0.008428612106756767,
    -0.012627969565330579,
    -0.007044656738850293,
    -0.028170647346937985,
    -0.0015785859376974455,
    0.006994636232878805,
    0.0,
    0.0,
    0.07534133908879509,
    -0.012438035472809304,
    0.03442861261539339,
    -0.022937507647440177,
    0.00572975413856729,
    -0.0013703744762711696,
    0.01382057676958932,
    0.0029279494240424947,
    0.0,
    -0.004225120187429135,
    0.0,
    0.0,
    -0.02767471150584611,
    0.026632349995453816,
    0.0021673972427068153,
    0.005320387268523886,
    -0.002977095090354235,
    -0.007712374160633058,
    -0.00933171913350512,
    0.0437881848740703,
    -0.00111825423171036,
    0.0,
    0.0,
    0.0,
    -0.019611617573688622,
    -0.0002692505645291756,
    0.017067122781113123,
    0.0,
    0.005271832271482224,
    0.026992673028172643,
    -0.008068992435318717,
    0.0,
    -0.045746521921594945,
    0.01589051246839692,
    0.019365821872305476,
    0.011130873047904654,
    -0.0019079821043373987,
    -0.01837122591066694,
    0.007197621975757119,
    0.04095696545831742,
    0.0,
    0.03668285160386211,
    -0.007109349044222941,
    0.0,
    0.0,
    0.019471245663565832,
    0.032060273720771026,
    0.0,
    -0.007685192026711598,
    -0.0230521229514083,
    -0.012565845716514685,
    0.007621916744731577,
    -0.007150522278653339,
    0.0004467780726369048,
    0.001723743251567934,
    0.02444297709017399,
    0.016393229022035452,
    0.034324038053748576,
    0.014995457553100762,
    -0.002894534326072118,
    -0.014050693260349639,
    -0.004678429354904428,
    0.0,
    0.007496049285935304,
    0.07112923440377716,
    0.02419891584735818,
    0.015053240107115904,
    -0.03513475574336026,
    -0.02134186078257165,
    -0.004365872932058428,
    -0.006608880353498687,
    0.0,
    -0.014958009452539736,
    0.007866563537466858,
    0.005286924072011737,
    0.0,
    -0.03276148336301795,
    -0.028202417963378888,
    -0.00798379329609541,
    -0.00889977767655341,
    0.0,
    -0.004961293524518166,
    -0.021347902097421257,
    0.0012182905789903356,
    -0.010600720364091275,
    0.01261096118698396,
    -0.003982162124343961,
    0.0,
    0.003916106781472659,
    -0.013418093833123612,
    0.00034846073658293845,
    0.01838197800022436,
    0.01932428303994488,
    0.049370430700968755,
    -0.0638162066589561,
    -0.006858407483036782,
    0.0,
    0.008779500838779113,
    0.0,
    -0.012026044858346685,
    -0.0066913532449361605,
    -0.003392844364364945,
    0.0,
    0.007209413255122577,
    -0.012824935930420786,
    0.03944702484491497,
    0.03946394724676991,
    0.004448426538201071,
    0.0,
    -0.01847662270158291,
    0.0,
    0.029334394607616283,
    0.008180239823597769,
    0.008355613685190954,
    0.0036276628009334158,
    0.01967896609415557,
    0.0,
    0.006417976988103577,
    0.02645434853832218,
    0.004829316299455115,
    0.0,
    0.007113169379588483,
    0.0,
    0.007851383334671365,
    0.00511474645169395,
    0.0,
    0.010539713816026527,
    0.0322390476060871,
    0.04644303645473911,
    0.0,
    0.015608240972634713,
    0.0,
    -0.007600731740353206,
    0.0012736827237704417,
    0.0,
    0.0,
    0.0,
    -0.008569744689546539,
    0.0,
    0.0,
    0.02477896340061847,
    0.0060389543829581565,
    -0.0035721356791759305,
    -0.04050867625043959,
    0.0,
    -0.008130884119405461,
    -0.017436721308927098,
    0.0009068637061746705,
    -0.0406136064113788,
    -0.030179497613360935,
    0.013046139729608726,
    -0.0009045043516156455,
    -0.018104566382352593,
    -0.0033954594730717367,
    -0.029328256588452083,
    -0.0012602868749538572,
    0.015542870530021236,
    0.0,
    -0.007740511122525514,
    0.02353834014549277,
    0.0,
    -0.02927991983880975,
    -0.002339289691185489,
    0.029928879616557352,
    0.006919988696284482,
    0.0,
    0.0,
    -0.041743279354116494,
    0.017349481801366105,
    0.006646295489225775,
    0.014873189233520014,
    0.039574043826550415,
    0.008821948081770477,
    0.01733452344080506,
    0.0,
    0.005177779602827392,
    0.0,
    0.0,
    0.0007636286440169961,
    0.08847701667249748,
    0.0,
    -0.016897370810151267,
    -0.011159429985941246,
    0.0,
    -0.0017744219681631282,
    0.0,
    0.0,
    0.007961352489890263,
    -0.008136740714432043,
    -0.03980656950155239,
    0.0,
    0.013193634066911337,
    0.0,
    0.011469186946534975,
    0.017772008964583315,
    -0.02354763823924975,
    0.0,
    -0.020184287499095788,
    0.0072929981093042264,
    0.0,
    0.0001897787496202507,
    0.02314742712526361,
    0.0,
    0.007541480078155263,
    0.0,
    0.0,
    0.0,
    0.0,
    -0.00995731320210988,
    0.0,
    0.011324652887638257,
    -0.0028329228892798384,
    0.0,
    0.0,
    -0.004167131392724976,
    0.0,
    -0.0027102149371052062,
    -0.009524801844228672,
    -0.005557825411005879,
    0.015025347496245437,
    -0.029276863797559827,
    0.02013526445917437,
    0.0034213619700078153,
    -0.011698600884124602,
    -0.007329474894529775,
    0.009419614337642108,
    0.0217066480971689,
    -0.0052986891905155275,
    0.0,
    0.0,
    0.0,
    -0.024942861355951564,
    0.0089595357232894,
    0.0,
    0.0,
    -0.016502564174288668,
    0.01789615556505891,
    0.013025725454895644,
    0.0,
    0.01648084758927764,
    -0.0007954722975775191,
    0.0,
    0.03864862836782967,
    -0.014971406903013516,
    0.0,
    0.00938232878561236,
    -0.03001184515381683,
    -0.005616921569472627,
    0.0,
    0.0,
    0.013965971363514717,
    -0.0029666345372780668,
    0.014749328734884451,
    0.007040514812053475,
    -0.049877222592838645,
    -0.011433916434776628,
    0.012264742781096172,
    -0.008353920936669007,
    0.023735804900527162,
    0.0,
    0.0,
    -0.015891038228409385,
    0.0024525528313195408,
    0.009259788636836717,
    -0.010457115297988288,
    0.0,
    0.03273924187495006,
    0.006935484168375339,
    0.025699406015023532,
    0.0,
    -0.06849999011259586,
    0.0,
    0.015503001901105321,
    0.005426892490266544,
    0.01975970338225036,
    0.01365550710425888,
    0.0,
    0.01038932539371309,
    -0.01716895023434915,
    -0.006482152316613753,
    0.0,
    0.005308062916035475,
    -0.000574603476970682,
    0.005742176897793157,
    0.0015907341212474213,
    0.0,
    -0.003139435938324271,
    0.0,
    0.0,
    -0.051683725960279946,
    -0.026838721759334154,
    0.012119668041343576,
    -0.009405565519726924,
    0.007488845125785317,
    -0.03194183052520744,
    -0.012445335218249488,
    -0.023820013848814384,
    0.0,
    0.011178010655900265,
    -0.03592113703318248,
    0.01337096573373446,
    -0.01649338167588651,
    -0.058402777605989276,
    0.0,
    -0.0020243673483533466,
    0.0,
    0.0249623845523658,
    -0.00024758157205410664,
    0.013715949255509601,
    0.009620820689331726,
    -0.007968884220582036,
    -0.013715577353876811,
    -0.0224275302556412,
    0.0171006457911486,
    0.02884451508156608,
    -0.0026673039042191433,
    -0.008539570341573837,
    -0.026218761958001907,
    -0.023032618142948207,
    0.038189385096000034,
    0.03313047307172214,
    0.0,
    0.0,
    0.0030055288606995936,
    -0.004291738084936845,
    0.0,
    0.0268562961040416,
    -0.008974627771442461,
    0.0,
    0.0,
    0.0,
    -0.0015827365767005631,
    -0.0038763738484662836,
    0.018778142709215608,
    -0.0007967412613432264,
    0.0,
    0.0,
    0.01972381470774315,
    0.0,
    0.0,
    -0.02235007418496925,
    0.02604975169349454,
    0.011821320903055259,
    -0.0036156247454574,
    0.0,
    -0.01088074935339143,
    0.0,
    -0.029507965326092275,
    0.027532293749249943,
    0.0044672392531399825,
    -0.01603695740742328,
    -0.008868183383931479,
    0.0,
    -0.0011927374956873028,
    0.005752140422045027,
    0.0015972000223798298,
    0.009511905867843763,
    0.0,
    0.0007032900545818067,
    0.010465283762193347,
    -0.015447724659996668,
    -0.007414397513095523,
    -0.004055444552358858,
    0.0,
    0.0,
    0.0,
    -0.002861824728295389,
    0.01799858469460211,
    -0.008219667072308536,
    -0.012249111204263044,
    -0.009995469905576697,
    0.0029306170932134595,
    0.0,
    6.378500193181598e-05,
    -0.010909119729973568,
    0.007160163867952268,
    0.0,
    0.005668337743867857,
    0.0302977770714417,
    -0.0314253175664465,
    0.0019127815854374217,
    -0.01573438830436827,
    0.047929713357700014,
    -0.02888901875380668,
    0.0,
    0.0,
    0.0,
    0.0,
    0.0003508277050301057,
    0.0,
    0.0,
    0.0213229189451763,
    -0.0030690851386702277,
    0.00916326621473926,
    -0.0142843434456203,
    0.00762517894425987,
    -0.027993780509860195,
    0.009070138692005786,
    -0.030379010796451077,
    0.029687670911290348,
    0.0,
    -0.0003832522493804944,
    0.0,
    -0.0010356298215020297,
    -0.022743547124334438,
    0.0,
    0.06142401709870012,
    0.0,
    -0.0035759681270766484,
    -0.0017295675743246011,
    -0.0023766908648286365,
    0.0,
    0.0,
    0.0,
    0.0148009987095317,
    -0.023558755337528575,
    0.013965048050131072,
    0.00015302409188037674,
    -0.011077014310620283,
    0.003336768526697186,
    0.0019112806781067541,
    0.02682645184990166,
    -0.03593699374949021,
    0.008657214372361664,
    0.009507903628899994,
    0.04049774496294826,
    0.011837738779313529,
    0.025923236666553752,
    0.0,
    0.0,
    -0.009001406259036568,
    0.0,
    0.028400870430467844,
    0.006461391601486149,
    0.015068807489424081,
    -0.047431073571523506,
    0.0,
    0.009854751832269705,
    0.02902172266585324,
    -0.0072426797048156496,
    0.0,
    0.0,
    -0.01055026182258449,
    -0.011604162881798136,
    -0.0010646895624392934,
    0.0,
    0.0,
    -0.00920877820330017,
    0.0,
    -0.02256007535855601,
    0.0,
    0.0376857890515947,
    0.0,
    -0.0063826875847161815,
    -0.029836777578537362,
    0.0,
    0.0177167758222594,
    0.0,
    0.0,
    0.0,
    0.004057051671301886,
    -0.01956013617826542,
    0.048255580855236534,
    -0.006277921481593362,
    0.0,
    0.0,
    -0.027000706845248197,
    0.01953303228549076,
    0.0017783803228530947,
    0.009121977112388944,
    0.03505133451066216,
    0.0,
    -0.02969658848587326,
    0.013899019041038383,
    0.003647394953754173,
    -0.0057493217605658516,
    0.004733485943142992,
    0.0,
    0.017679924246458718,
    0.0003849691256972667,
    0.0024331332042228492,
    -0.028063191783445046,
    0.0342249788164761,
    0.03473488480369744,
    0.0,
    0.001222199318521305,
    0.0,
    0.0,
    -0.004870821379793069,
    4.201471698237614e-05,
    0.011233910224019969,
    0.004184129308649704,
    0.0,
    -0.0007517207136134096,
    0.024101613713340297,
    0.0002149084721675252,
    -0.027340883816186486,
    -0.0023785148545146994,
    0.0,
    0.022780385850530334,
    0.0023517923754514274,
    0.006093872690248164,
    0.0,
    -0.002210618501127536,
    -0.01851839420111282,
    1.3576596771327018e-05,
    0.006050125891322112,
    0.0,
    -0.014431854348682629,
    0.0037722763068926673,
    -0.032997321601889326,
    0.0029415679211818473,
    0.0003621571962169179,
    0.0,
    0.0,
    -0.002979619338004457,
    0.0,
    0.03900830262893842,
    -0.013292956520553881,
    0.009815027057926211,
    0.0011376252021955881,
    -0.011927304174731687,
    -0.004686848900805653,
    0.0,
    -0.038885144243173575,
    0.005233692020475742,
    0.0001983640333280302,
    0.007065012737132223,
    0.0019399902573453123,
    0.0,
    0.0,
    0.008904837451292716,
    0.0028834448071521006,
    -0.012793412230312308,
    -0.01808900541193744,
    0.0,
    0.0,
    -0.01118463397330318,
    0.0,
    -0.012711843787265094,
    0.006389435763796695,
    0.010962811216472051,
    0.02516709810950511,
    -0.006941445867491229,
    0.0023579799437205,
    0.0,
    0.0,
    0.0,
    0.0,
    -0.010482673016983267,
    0.0710085511552162,
    0.02608336123995819,
    0.013936232664450933,
    0.0053232225093387785,
    0.03444157184626009,
    -0.01654065525381671,
    0.019736323816677226,
    0.0186253178041539,
    -0.012415196525543638,
    -0.02913527869925596,
    0.00959805642176112,
    -0.03367229340041812,
    -0.00966261031158755,
    0.04586151056377135,
    -0.005345440085589442,
    0.007290599080937691,
    0.0063628369185079,
    0.017035021428898955,
    0.036367403399696525,
    -0.018805943323874127,
    -0.020987450158465606,
    -0.01843109389214346,
    0.0,
    -0.012572250109617511,
    0.007022923569794378,
    0.01696703177558976,
    0.0,
    -0.008059801073713124,
    0.004977122880867533,
    0.0,
    0.016411920606284686,
    0.030403745037482124,
    0.00864370985493418,
    0.04985723538499378,
    0.016112010188574624,
    -0.000618759115053119,
    1.3993299207678155e-05,
    0.016692968672656947,
    0.0,
    -0.0029376617562960703,
    0.018438059837790004,
    0.006496359793845801,
    0.003899401462904981,
    0.010263022561779248,
    -0.012224522085443616,
    0.013596427302352145,
    0.018749040651401705,
    0.0025820755014880153,
    -0.015566547744640627,
    0.04103876084273526,
    0.009322279769299583,
    -0.01197716496763289,
    -0.017789767665285637,
    0.005511491465438513,
    0.0011405731223763965,
    -0.01634403711748757,
    -0.013418828323728873,
    0.0,
    -0.00709251974442308,
    -0.009144839994360925,
    -0.0092187868649253,
    0.0,
    -0.0015383261467226568,
    0.00483758977142825,
    -0.01568127938947521,
    -0.0009627408361171828,
    0.0011266041312748716,
    0.007939399690413875,
    0.0,
    0.0068612715663549165,
    -0.02531676390765863,
    0.0,
    0.0,
    0.0,
    0.00725504010607989,
    0.002667136824712395,
    0.021122202512292652,
    0.02000820103304034,
    0.0618744720839274,
    0.019576289522341448,
    0.014023523747256737,
    0.01328208563987052,
    0.00030264654289878425,
    -0.03887735714652035,
    0.02179898117426491,
    0.0,
    -0.001380348449247903,
    0.026723899791598286,
    0.010419702297223108,
    0.1179224764976265,
    -0.02359349527142884,
    -0.0003847122589070733,
    0.0,
    0.0,
    0.0,
    0.008182730308478993,
    -0.01801999688448955,
    0.0,
    0.0,
    -0.031711094104397854,
    0.0,
    -0.061037169140839655,
    0.0,
    -0.0015411031424169839,
    -0.010266161706386837,
    -0.012417962793320208,
    0.009497572807809251,
    0.0,
    0.012013074548535604,
    -0.025097644087421205,
    0.0,
    0.03315380200300186,
    0.011705893635129664,
    0.0,
    0.0,
    0.03773144066673024,
    0.0,
    -0.03398977369948501,
    0.01155630583857401,
    0.03625493377961584,
    0.0011313883539464352,
    0.0,
    0.0,
    0.0,
    0.0,
    -0.00663314507063632,
    -0.012058976526922796,
    0.015683650635750158,
    0.0,
    0.0,
    0.03431636868417378,
    -0.0001588485481481061,
    0.002413409637350602,
    -0.005334967229489997,
    0.002756871552021744,
    -0.002808786964505236,
    0.046053681049288545,
    0.009996601025237598,
    0.037529370142588774,
    0.016703589313099745,
    0.0033885671269206106,
    0.01711262643526504,
    0.017190109949009835,
    0.0027080103123861337,
    -0.01750244776101022,
    -0.01779309162223159,
    -0.0016990956011230201,
    -0.015486567987940122,
    -0.0002625227287846005,
    0.0,
    0.025066022583051642,
    -0.004199512678015263,
    -0.01719600877663632,
    -0.0035608898694193575,
    0.0,
    0.029100711978575163,
    0.013944489427805525,
    0.0019366728556634556,
    -0.010527387914976502,
    0.06345154238646081,
    0.037748851956140195,
    0.006051139294318156,
    0.00954041949164237,
    -0.015519640217632089,
    -0.0002170682121092835,
    -0.007836494274075666,
    -0.011921743352650272,
    -0.014583874749559519,
    0.0,
    -0.016106517958646933,
    0.03323824539532259,
    0.0,
    0.0008974390506708374,
    0.0,
    0.0,
    0.009187355926681077,
    0.016280096479570943,
    0.0,
    0.0,
    0.00020363813252056515,
    0.0,
    0.037804176169133945,
    0.02769177019434257,
    0.0,
    0.0,
    -0.002651270740833345,
    0.0,
    0.0016943561778368103,
    0.02360104948140206,
    0.022771239301606246,
    0.0,
    0.021199651926171,
    0.022274544849378214,
    0.01878828425312661,
    -0.011942384280092054,
    0.021651733136554926,
    0.0,
    0.0,
    0.033583026570140194,
    0.016474030755816212,
    0.011719568449300586,
    -0.010048138860079473,
    0.010836570580516196,
    0.009050509652226946,
    -0.011128141734176302,
    0.0,
    -0.011184888305365305,
    0.008473347687244127,
    0.01007545066525014,
    0.0,
    0.004732001957570745,
    0.0,
    0.014845991549182104,
    -0.027990230028327963,
    0.023546681655270123,
    0.0074597294264261505,
    0.0,
    0.020851920052283146,
    -0.009645895497859835,
    0.0,
    0.0,
    -0.00056674848464668,
    0.02345471573934966,
    0.0009029169041150331,
    0.0009856057998505522,
    0.0,
    0.01136239670721776,
    -0.029515501661499896,
    0.004242753413295163,
    -0.00801232230021071,
    0.025855829228865316,
    0.00660780899668879,
    -0.008843905809618146,
    0.0,
    -0.011511348924240073,
    0.01737599831469265,
    -0.0011996544264335678,
    -0.022282158543892944,
    0.012923877098917746,
    -0.005263090756844666,
    -0.0023575700241857817,
    0.0,
    0.004313391159994044,
    0.0,
    0.02122173060768619,
    0.022072119448278648,
    0.020936219970603093,
    0.0004687620661587168,
    -0.0054741226954544775,
    0.0,
    0.0,
    0.021419377309983962,
    -0.018307334627157907,
    -0.00744516540488507,
    0.029333380279206435,
    0.0,
    0.0,
    0.001722162553646281,
    0.0,
    -0.022981023213422165,
    -0.014139870231234627,
    -0.013999555283348081,
    0.0662427459609575,
    -0.003787883861921592,
    -0.017738450002475765,
    -0.008591012451046955,
    0.0024671132519668406,
    0.0,
    0.0,
    -0.025843670060253746,
    0.038197773678465545,
    -0.010733722467162475,
    -0.0008743699090586819,
    0.04916845300928924,
    0.0,
    0.0,
    0.0,
    0.013480291010124698,
    0.0038189104771231097,
    0.012798836424682351,
    0.0,
    0.0,
    0.03134102760190975,
    0.013615304524195144,
    -0.005204312671725031,
    0.0,
    0.002860764014159488,
    0.0016961014823368551,
    -0.004055996958779908,
    -0.02089485329468618,
    -0.01005265303160443,
    7.859146118501237e-05,
    0.0029016292202117605,
    0.0,
    -0.035740029531654484,
    -0.0012614992153069096,
    -0.022375809011826387,
    0.0,
    -0.016405746509634386,
    -0.00019199818187143518,
    0.002422798550353261,
    -0.006374185479361983,
    0.01717567159075797,
    -0.0014695969961796276,
    -0.009258761683941137,
    0.07094212303458043,
    -0.01686447977237818,
    0.0,
    0.0,
    0.0033758608683723585,
    0.008796111539047429,
    -0.003266107343801696,
    0.0,
    -0.01151160990619896,
    0.02785938576077755,
    -0.020613134011694526,
    0.027627606341812223,
    0.0,
    0.0,
    0.016429304073128616,
    0.007256491781418807,
    -0.038931503174153816,
    0.006108011174247294,
    0.0,
    -0.00803816488622349,
    0.0,
    0.0,
    -0.020504021750165437,
    0.019014388132912636,
    -0.016654747495600943,
    0.034155480500051676,
    0.00132961654858153,
    0.06687525975697683,
    -0.007563276424720782,
    0.0,
    -0.0021167747079858133,
    0.0,
    -0.005857137686764165,
    -0.029103846379124033,
    0.04280462510108922,
    -0.012291850543885383,
    0.0012682785548078193,
    0.012548412465945012,
    0.0,
    -0.006355991557996749,
    0.017711486682186337,
    0.0,
    0.0007628776046706443,
    0.019655805944506586,
    0.0066903926218529,
    0.0026461391516773053,
    0.03647258355309421,
    0.02369327452283405,
    -0.01133767934623893,
    0.07320807758735771,
    0.0609918444143878,
    0.0022983909540401485,
    0.0,
    0.0,
    0.03363500774885965,
    0.010115961827854545,
    -0.0037525431573368823,
    -0.009738867619067731,
    0.0017082862716735414,
    0.01684027610833144,
    -0.01354594421108356,
    -0.007512088058090824,
    0.010527304298535677,
    0.0,
    0.011344031827872952,
    -0.012189930264136072,
    -0.020210941274073104,
    0.001279864021436942,
    0.0033595672047556017,
    0.0,
    0.03250575028352697,
    -0.011699029439843132,
    -0.000688326610216227,
    0.020474574462107306,
    0.0,
    -0.026616925137588333,
    0.0,
    0.015438576631509235,
    0.0,
    -0.005770769163257595,
    0.00901047913471352,
    0.0,
    0.0,
    -0.013796613519822318,
    -0.01898592681527556,
    -0.03542452496011725,
    -0.00899081352533148,
    0.0041735921367598485,
    0.009664563342784644,
    -0.06552835862100646,
    0.012502848240521119,
    0.0,
    0.01392959825010719,
    0.015027527620761984,
    -0.013845904602473575,
    -0.023795942744303314,
    -0.002066469755851572,
    0.006868743122587165,
    0.010479659630111814,
    0.0008945960422090932,
    0.0038031040847723596,
    0.008489635012001706,
    -0.0032938266551037635,
    0.05126500630256168,
    0.0,
    0.0,
    -0.015622913023789323,
    -0.02159758821421287,
    -0.006767208720849053,
    -0.038276773325960384,
    -0.03531423026618531,
    -0.0035197393672240784,
    0.008998504864807353,
    0.0,
    -0.0004893745693504486,
    0.0,
    0.0,
    0.0,
    -0.03692340203750148,
    0.001911829354397804,
    0.0,
    0.0,
    0.0,
    0.0,
    0.0,
    -0.013991057410269084,
    0.0,
    0.0,
    0.0,
    0.007114522721638556,
    0.010795033540319951,
    0.0170101876663053,
    -0.006543480615107308,
    0.0,
    0.0,
    -0.02526259257110402,
    0.0,
    0.0,
    -0.017574074140625263,
    -0.0033660700838843254,
    0.0,
    -0.03111865398702123,
    0.0,
    -0.004556155674892725,
    0.016551038763646348,
    0.002474938299927793,
    0.004162289919667157,
    -0.006252379551222574,
    -0.00330040428362517,
    0.0026937348737974386,
    0.017401705123049102,
    0.0,
    0.0,
    0.02585701588521525,
    0.011157106093257667,
    0.0,
    -0.016798977220207963,
    -0.040064782456697104,
    -0.03231902467797125,
    0.00045585896774895916,
    0.015674224022035783,
    0.053312978382930414,
    -0.01129306104684534,
    -0.01959109639944113,
    0.0038922405644748813,
    0.0,
    0.012964685075401364,
    0.0,
    -0.006705684883587598,
    -0.04307363790207917,
    -0.02140483958523228,
    0.0,
    -0.00816153881436927,
    0.016561003533503968,
    0.030751985164391205,
    0.0,
    0.03213270208248725,
    0.0028006121709648127,
    -0.013597334733228486,
    0.0,
    -0.01768350033600922,
    0.0,
    0.04902016170965675,
    0.02610045998679404,
    0.009213945969178901,
    0.06757347050865202,
    -0.054671023342913225,
    -0.057401686598458165,
    0.02482789756376433,
    -0.005170671448915174,
    -0.035517945951650136,
    0.009648500421270094,
    -0.021896258387920968,
    0.0026883628295324828,
    0.0,
    0.03207142938134594,
    0.030943046842673672,
    0.0,
    0.0,
    0.016941129571460954,
    0.003481018157847515,
    0.009456170209893441,
    0.009868813786910995,
    0.010928550729884582,
    0.03052476458827024,
    0.03404281694599152,
    0.01029928212566214,
    0.0,
    -0.05974350987154398,
    -0.023376584590739588,
    0.00905445857420681,
    0.0033063528995352985,
    -0.029086944716294885,
    -0.018097866367160684,
    -0.0868913931445589,
    -0.013507313334624118,
    0.0,
    -0.02327657626832471,
    -0.0205729872190371,
    0.03216326108829795,
    0.0,
    0.0,
    -3.1123000355174034e-05,
    0.0,
    -0.0008394433559743856,
    -0.00025768429976312377,
    0.0,
    0.018403377480143812,
    -0.008958934339658643,
    -0.011779767495875032,
    0.025426290671366716,
    -0.025922562828672856,
    0.011588661654163222,
    -0.0036942512473650624,
    0.0,
    0.04578940868627297,
    0.022429545068716743,
    0.039979596218230905,
    0.0,
    0.0,
    -0.01495154720441515,
    -0.03330091074296643,
    -0.007561253773454944,
    0.0007225039161610327,
    -0.002282159095429008,
    -0.010603333859493974,
    0.0015387416767837785,
    -0.017918085003715865,
    -0.004469951673167579,
    0.020933514184223973,
    0.0,
    -0.005094719523927763,
    -0.009553734102142173,
    -0.0018940006163607262,
    0.0004831295755821668,
    0.0,
    -0.017205697249925787,
    0.015478830021601452,
    -0.0037922074198813035,
    -0.04064748382025878,
    -0.0027636870653828852,
    -0.013981858391117484,
    0.0,
    -0.010157102803663089,
    0.0,
    0.0,
    0.0,
    0.0,
    -0.018396559696897054,
    0.003604904569624671,
    0.0,
    0.026879217375528636,
    0.0,
    -0.004752673120183516,
    0.0,
    0.0,
    0.0,
    0.0,
    0.014195226431556096,
    0.028993843410702488,
    0.0,
    -0.0164553076583748,
    -0.01725310118862543,
    0.020046208778197176,
    0.0,
    0.03403183915581783,
    -0.005681683102671132,
    -0.0009373330413643138,
    0.0,
    0.0,
    0.0,
    0.00518182235285397,
    0.0,
    -0.01714091939704023,
    0.0,
    -0.003484115560161169,
    0.0,
    0.007054302205554196,
    0.0,
    0.024528641495302116,
    0.0,
    -0.017501565011920215,
    -0.0011994424733418252,
    0.06549367418087615,
    0.0072814488431906625,
    -0.003342120690480011,
    0.0,
    -0.007323819373377483,
    0.0027121260568193912,
    -0.002123158526217099,
    -0.005933190963853728,
    0.012548608385091097,
    -0.0066196550631363316,
    -0.001204280119593382,
    0.000135347876001818,
    0.00948627254326757,
    0.004477270502886216,
    0.0,
    -0.009893777703803239,
    0.0,
    -0.060268734315212624,
    0.006956881661236555,
    -0.011455289523767669,
    -0.01598644762025327,
    0.001299141738711329,
    0.0,
    0.0,
    0.015085620501162382,
    0.0,
    -0.0008287511908028635,
    -0.00960362402273653,
    0.0,
    -0.0029629906710351246,
    -0.040084825832294814,
    -0.0003513229280468384,
    0.0,
    -0.00012009041416753295,
    0.01897056725830352,
    -0.0023280472661481016,
    0.0,
    0.0,
    0.0,
    0.0,
    0.014115516444056002,
    0.0,
    -0.01091545490637992,
    -0.0008846410003545686,
    0.0,
    0.0006190914509601708,
    0.04572312901897323,
    -0.004700339912046175,
    -0.005081726173335832,
    -0.007915776052701703,
    -0.0010773505445949752,
    -0.00811017906296693,
    -0.013362325962129192,
    0.0035246053802731082,
    0.0015906688577082037,
    0.0,
    -0.0004515747158581604,
    0.005714678661240798,
    0.007095297689988786,
    -0.015580202156155923,
    -0.010442036374294679,
    -0.010525505011443921,
    -0.01672241372184115,
    0.0,
    0.0,
    -0.01726440473980421,
    -0.003750038955058796,
    0.0,
    0.020393246321782653,
    0.0016381591897966937,
    0.0,
    0.01950289802986047,
    0.01332447507052865,
    -0.010343795548341174,
    0.018752381826751853,
    -0.033127200075073436,
    -0.019222500198249937,
    0.0010256692570008935,
    -0.041953496379037815,
    0.0024803067753112877,
    0.001283539942453617,
    0.03375677667481807,
    0.0,
    0.0,
    -0.0018786423746561898,
    -0.035219202087933346,
    -0.04267828506869894,
    0.0,
    -0.015597141601181372,
    0.003542712531895271,
    0.007665405227976807,
    3.9928037437441454e-05,
    0.024411278732420858,
    0.0,
    -0.007797346260054205,
    0.00029450589508039134,
    0.0,
    0.018752513465751162,
    0.0,
    0.0,
    0.017972049706307117,
    0.037193406050648053,
    0.02059028471221732,
    0.0,
    -0.009640228648969821,
    0.041249656084901304,
    0.0,
    0.0,
    0.00021210385350240306,
    0.010982054168626803,
    0.008630831398298818,
    0.02392977512281085,
    -0.01221078297652643,
    0.0,
    0.014790172966224478,
    0.004983222327814386,
    -0.011064606958670158,
    0.0026794167724756997,
    -0.0023006076963861563,
    0.05715230160429925,
    -0.017822151099075277,
    -0.0012023307641145797,
    0.004594296388164201,
    0.04002564124315092,
    -0.021813781378441748,
    0.0,
    -0.003660122732841626,
    0.005542041589595678,
    0.0,
    0.026253730067164117,
    0.0,
    0.0,
    -0.010578023471204463,
    0.0,
    -0.024067173759013846,
    0.0,
    -0.001349744285468343,
    -0.004617095960337511,
    0.034551363269862814,
    0.03337366567324136,
    0.0,
    0.0,
    0.004187066572569551,
    0.0060812415684051956,
    -0.007651582191656529,
    0.018158753490121183,
    -0.029730421932759113,
    0.0,
    0.0341091410729058,
    0.0,
    0.009424224666753524,
    -0.05188084467531543,
    -0.04999130182235913,
    -0.025785206728589295,
    0.012439064790517136,
    0.001468429777285231,
    0.0,
    -0.01950544719058612,
    0.026148359635999846,
    0.0,
    -0.002237814800692445,
    0.0,
    0.035015528783853916,
    -0.008190302569721445,
    -0.0032034420710450413,
    0.0,
    0.015393625909436973,
    -0.027071657597405242,
    0.0,
    0.0,
    0.03325172859468545,
    -0.011816074882852511,
    0.0032755459649984682,
    -0.00945964303507253,
    0.0015297852996525216,
    0.0,
    0.013283156129850144,
    0.002018576988220534,
    0.0,
    0.0,
    0.02148172098693502,
    0.0,
    0.0,
    0.0,
    0.0,
    0.0,
    0.04014072704517297,
    0.005249077730704624,
    0.0,
    0.0,
    0.010561870125036074,
    0.0,
    0.02229615068936771,
    0.01381642545010773,
    0.01796215429512483,
    0.024811059435145152,
    -0.005766174775207848,
    0.0,
    -0.005207193315957826,
    -0.015986829395531664,
    0.0,
    0.011285190500278193,
    0.030703592532142356,
    -0.002322593717980039,
    -0.01245676296035464,
    -0.026957570835261443,
    0.0,
    0.008499712004734847,
    0.0,
    -0.01799895918434959,
    0.003439366371621006,
    0.01790862706247833,
    0.0,
    0.01475495375279247,
    0.0023597588517304162,
    -0.0019647110018667408,
    0.0011924559809831138,
    0.019537926281902453,
    -0.017909672244051256,
    -0.015903802770878536,
    0.0321648744209688,
    0.008875166927399094,
    0.024383093605790378,
    0.09896198250891694,
    0.023994292905186607,
    0.0020015304582291487,
    -0.020404323849734063,
    0.0,
    0.0015281132664117054,
    -0.0020487034931346423,
    0.0026505986845243995,
    0.0024194101173500605,
    0.0,
    0.0,
    0.06565111884744343,
    -0.0015072773589125692,
    0.006066196252592717,
    0.0047285665445056975,
    0.021650798366434007,
    0.0,
    0.015824403233598888,
    0.006216417390915658,
    0.03396311110041326,
    0.0,
    -0.0015725420577172426,
    -0.007604842081863423,
    0.002568315089809488,
    0.0,
    0.007717265069472222,
    0.0,
    0.009036120047874695,
    0.006078296337316532,
    -0.0020167799539908817,
    -0.013840228701480335,
    0.02090661825727095,
    0.02899578755737015,
    -0.025637612434652905,
    0.03269680341560873,
    -0.009680158996869942,
    -0.007296939493039065,
    -0.033241191016318346,
    -0.009284684642734114,
    -0.008178779612673437,
    0.0,
    -0.00044280513434198307,
    0.0,
    0.0016448415596317012,
    0.0,
    0.007081083353340348,
    -0.0137903827607354,
    0.021641668509887173,
    0.005104802706889819,
    0.0,
    -0.00720952908076729,
    0.010244951126677695,
    0.0,
    0.0,
    0.013929087205482653,
    0.008593878481668935,
    -0.018220345651488473,
    0.0018826253951940227,
    -0.04370298259280159,
    -0.0011524061874704386,
    0.010640588086373292,
    0.010953143103428962,
    0.05003422286474373,
    0.02832246489642036,
    0.016323984302873674,
    0.016802879203178998,
    0.0,
    -0.013938683039198964,
    -0.0016888153342552153,
    -0.026006491932859765,
    0.014202303561758792,
    -0.01743840574965244,
    0.002902756346886836,
    -0.053079294712973894,
    0.0,
    0.0,
    0.0198920673963059,
    -0.021473999142689874,
    0.00979504879632185,
    -0.024193837459106818,
    -0.01642397330179312,
    -0.023322730129722764,
    -0.0165530871125181,
    0.014212159188205613,
    0.0,
    0.0,
    -0.004732470867616888,
    0.03591599312628762,
    0.02842363773578638,
    0.007791303581246862,
    0.0,
    0.031218486084613032,
    -0.00692268866721142,
    -2.6314835360867938e-05,
    -0.009477864090624951,
    0.0,
    -0.024137583116279365,
    -0.0038543727311234947,
    0.0,
    0.03300105192395283,
    0.002216113645619729,
    0.008167307059314744,
    0.0009624653571110511,
    0.007825503329249611,
    0.022140255713572147,
    -0.0036813845153729546,
    -5.178837719008244e-05,
    0.009783776866439697,
    -0.002397710559750288,
    -0.0031424691787211175,
    0.0,
    0.0,
    0.045223794874173155,
    -0.022039027243310704,
    0.02681076778835857,
    0.017774500038381498,
    0.006177928214489762,
    -0.0015945842489962596,
    -0.0361067905264786,
    0.0,
    0.010089255931879555,
    -0.01248015396110499,
    0.0,
    0.01826979843371295,
    0.0,
    0.023567515771644124,
    0.0,
    0.0,
    -0.007515119854968758,
    0.0,
    -0.004026779618011435,
    -0.01547929529965661,
    0.006750869413770433,
    0.04134681205056101,
    0.022799096797181312,
    0.0,
    0.0,
    -0.006057954607088546,
    0.0,
    -0.05767357630807267,
    0.02330912504085972,
    0.0,
    0.0,
    -0.02847211431991742,
    0.05288204883699,
    0.0,
    0.013339987091252808,
    0.0,
    0.0,
    -0.04724334863585813,
    0.04177622259572681,
    0.0,
    0.04074941553735189,
    0.0,
    0.0,
    0.0,
    0.0,
    0.0,
    0.0005355611195850688,
    0.0010139111166411802,
    0.0,
    -0.0190048300371122,
    0.030796746663864,
    -0.013205210101596792,
    0.029603748858320067,
    -0.01828901786331574,
    0.010032640232381212,
    -0.006710930591013731,
    -0.005737527048717967,
    0.013759329277867272,
    0.007216840243863972,
    -0.0065773915618142775,
    0.012612558902239905,
    0.01195002964192775,
    0.0,
    -0.0019446024421225835,
    -0.025572033144126306,
    -0.0008477767089208273,
    0.004478763501653216,
    0.02515954247514822,
    0.0,
    -0.002674281182717805,
    0.013933916710440227,
    0.005238142447356918,
    -0.008202126990216772,
    -0.02388268245375262,
    0.008702128800869569,
    0.012876044029052807,
    -0.019885342447125247,
    0.0,
    -0.018952560662119113,
    0.002995116596679617,
    -0.0056983014475536385,
    0.0,
    0.004298375837983778,
    0.0,
    -0.045170407916190626,
    -0.03211255802342488,
    0.0,
    0.003807835767545208,
    -0.04847499509610117,
    0.0,
    -0.01939695838206186,
    0.0,
    0.0,
    0.02898936151617557,
    0.0,
    -0.016862058275490557,
    -0.018981800952326208,
    0.025709394580481885,
    0.0,
    0.027091576963330137,
    0.02014436930918525,
    0.0,
    -0.0091957924556876,
    0.0,
    0.008838945322373639,
    -0.014310644413106807,
    0.0,
    -0.001645127356904916,
    0.0,
    0.0,
    -0.0012513697822569218,
    0.0,
    -0.00278323949634803,
    0.0024654113544481655,
    0.0,
    -0.015826709780563924,
    0.03738061621115897,
    -0.0026884879926113193,
    0.0,
    0.0,
    -0.009673208988699476,
    -0.007931595525673137,
    -0.010426061987045604,
    0.03360848676506159,
    0.0,
    -0.011485165643367181,
    0.006398849978402077,
    0.01099125590899623,
    0.0001236348814921211,
    -0.012376811290700444,
    0.028627811685735853,
    0.0,
    -0.0062829663866874885,
    0.006285806902772575,
    -0.006371591740160204,
    0.0,
    -0.006402981718865875,
    0.010070127411427475,
    -0.0230229726717666,
    0.008434365619047458,
    0.04582892955617206,
    0.03496176545685606,
    0.008133686593429492,
    0.0,
    0.0,
    -0.006979163762629228,
    0.002325819544768548,
    -0.007071951871349318,
    0.0,
    0.027093115323496255,
    -0.0237051923340229,
    -0.006200686457545709,
    0.0,
    0.0,
    0.007532556879303247,
    0.0,
    0.01937403939842024,
    0.0035622197710144473,
    0.0,
    0.0,
    0.045417677979275296,
    0.0,
    0.0,
    -0.018270921521474314,
    0.0,
    -0.0009284755115096198,
    0.014205395222556802,
    0.0,
    -9.773701796781043e-05,
    -0.009446850844209244,
    -0.014165859790447944,
    0.0,
    0.0,
    0.0,
    0.001714879286107071,
    0.0,
    -0.02104508370591335,
    0.010675854917437921,
    0.0,
    0.01119496681529917,
    0.0,
    0.0,
    -0.012396372397816881,
    -0.01897157403323679,
    0.03529589519932928,
    0.019265196370459765,
    0.011205893906318896,
    -0.014965167751320438,
    0.0,
    0.0,
    0.0051160810193482354,
    -0.002380614766672126,
    0.012197939615828867,
    -0.002763902193118982,
    0.009828194224404417,
    -0.016150684358216563,
    -0.0017383340835938142,
    0.020779879148190388,
    -0.0008257870432761842,
    -0.01873982341740099,
    0.0,
    -0.049216498803250776,
    -0.01919566809418064,
    0.04772745754248086,
    -0.0027277802925078204,
    0.0,
    -0.026373342459599717,
    0.010631652402526325,
    -0.00031285220023202824,
    0.0,
    0.0076413726877938015,
    1.9047445588506247e-05,
    0.02079679227113506,
    -0.04033902518610508,
    0.0,
    -0.0011880897916053414,
    0.02336399108436588,
    0.014945279995025252,
    0.028246169291763833,
    -0.002603699546841459,
    0.005808346320205238,
    -0.02525380211048462,
    -0.0075260464492634,
    -0.0014508230059084063,
    0.0,
    0.0,
    0.0007592149984070454,
    0.0,
    0.00964113678998088,
    0.008132209004184609,
    0.0,
    0.0044029389523784854,
    -0.005807546690002973,
    0.0,
    0.0,
    0.00717279384525055,
    0.0,
    0.019775573557983726,
    0.07751772200658705,
    0.03211150619676411,
    0.0,
    0.03979171136605886,
    0.0,
    0.0,
    -0.024350881497910183,
    0.017028091081034622,
    0.016204886580517008,
    0.00854413234899458,
    0.04504042607916943,
    0.0,
    -0.009409561588850483,
    0.0,
    -0.01448223676436866,
    0.013026596735544047,
    -0.008371583857226195,
    0.02814541455990061,
    0.03464451051941357,
    0.0024545313472200485,
    0.0,
    0.002143573435750166,
    0.019691281740996977,
    0.0,
    0.011543815491840291,
    -0.01046829677755862,
    -0.026667352155903948,
    0.009928071889690106,
    -0.00900962623483388,
    0.0021032562163623143,
    0.00019954066604797874,
    0.031636531728868926,
    0.0,
    -0.00402582356344232,
    0.01775054646736319,
    0.017165048559350294,
    -0.01786655642246458,
    -0.0031216978619815925,
    0.0,
    0.009777204568728206,
    0.0,
    -0.028703154727542587,
    0.0,
    0.006336572693869756,
    0.0,
    0.0014382577623702037,
    0.04829141387638882,
    0.0,
    -0.0239902493341255,
    0.005250983877310655,
    0.0,
    -0.0020487278294198876,
    0.011605436083047097,
    -0.003442191201613713,
    -0.013316703224292108,
    -0.03305195467943047,
    0.008377131726937449,
    0.023234297012135294,
    0.006097623067541531,
    -0.0422888241199847,
    0.009214387679144948,
    0.0,
    0.0,
    0.003568585120116526,
    0.0,
    0.0,
    -0.0004883991358882328,
    0.022359038044330263,
    0.0607376081970391,
    0.005098841148737539,
    0.02075800945060627,
    0.03876754380991099,
    -0.02604450231087436,
    0.0,
    0.003920163569716713,
    0.0,
    0.013733171503463539,
    -0.03346132642237811,
    -0.0018158439613525494,
    0.0014276286727156638,
    -0.004650827326248853,
    0.02984950833906956,
    -0.03423601349087378,
    0.014740465328487612,
    0.01259355522218138,
    -0.016945176562039616,
    0.0008385991778392774,
    -0.01920814029650405,
    0.006493825203045977,
    0.003301628059733057,
    0.02296922687154843,
    -0.0025312016050725236,
    0.0,
    -0.0006049452010976191,
    0.0,
    0.0010312323654322114,
    0.0,
    0.0,
    0.001385462521519778,
    0.0,
    0.008894715380111343,
    -0.03465412474433042,
    0.009572079952207886,
    0.0,
    0.0,
    0.0,
    0.018862834892657856,
    0.0008467577050636376,
    0.0,
    0.0,
    0.030701865452759554,
    -0.010634096280301486,
    0.0026288440437828445,
    0.01925099348037629,
    0.0,
    0.00457173471409551,
    -0.004413400766607111,
    0.0,
    -0.018935980277812618,
    0.01628122743425952,
    0.0,
    0.0,
    0.00771413784072256,
    -0.009008689201544151,
    -0.023474703787955783,
    -0.0058540366201413185,
    0.028733822549333224,
    -0.006558842935168246,
    0.017751998235307764,
    0.0,
    -0.024870287367681695,
    0.04063543044229324,
    0.0,
    0.004604004980088248,
    0.0,
    -0.002608916932049113,
    0.028974557413823935,
    0.020709845166148187,
    0.02858233210420773,
    0.0,
    -0.002816579930372916,
    0.0,
    0.003071352069437804,
    -0.009144534538202945,
    -0.00607397851917923,
    -0.022463043810423952,
    0.005941226590408773,
    0.006690694934238994,
    0.0,
    0.0,
    0.00858397843224912,
    -0.02269305829604089,
    0.0,
    0.0,
    0.004952195572406953,
    -0.012351673823101018,
    0.00985988730199747,
    -0.01780282132753093,
    -0.0016424086403030174,
    0.03451016367758887,
    0.019026792228272135,
    0.0017635313110943012,
    0.008970874288433493,
    -0.007809229711051915,
    0.01343403265957569,
    -0.0013220793596390738,
    0.0,
    0.0,
    -0.050506137562162795,
    -0.01009336400768293,
    0.024907876081578354,
    -0.007101462353642479,
    0.044487003239135785,
    0.019401980435400933,
    0.0006073613230542263,
    0.028174973481406233,
    0.0,
    0.006034275432142456,
    -0.009254919881238147,
    0.0,
    0.0,
    0.03649177108703424,
    0.04556318793597477,
    -0.011752293638350822,
    0.03041371350132058,
    0.014187912694386896,
    0.02648666102522947,
    0.02437443393096259,
    -0.0039866736918127196,
    0.039856391162115264,
    0.0033952845754801403,
    0.0,
    0.009377152433484586,
    0.006092284323995864,
    -0.035076382755341196,
    -0.01189249213566254,
    0.022443074418295923,
    -0.00836012861812554,
    0.019855712102673156,
    0.009991699056969186,
    0.0,
    0.012530052924825098,
    -0.016006475206160692,
    0.017276961430203304,
    0.004747319056897711,
    0.013634687725051374,
    0.047150150910540624,
    0.03380444565171687,
    0.0017831499608739955,
    0.0,
    0.005692471638482201,
    0.0,
    0.0292252411548114,
    -0.0010623801167262753,
    0.02021568937060839,
    0.004955882972791403,
    0.02169538120333952,
    -0.01640340492335535,
    0.0033192224506177303,
    0.0,
    0.004631729034906803,
    0.006834884326946404,
    -0.002650835442970412,
    -0.007817899765821716,
    -0.01572598544159635,
    -0.03630771818635366,
    -0.01286360923270366,
    -0.0006106448665857088,
    -0.028218280523029177,
    -0.003297018743607782,
    -0.014799650815502101,
    0.0,
    0.015963093857800408,
    0.0,
    -0.0209146483563193,
    0.01525980037090437,
    0.0,
    0.012370516657650698,
    -0.0022496165218701303,
    0.04978130155108683,
    -0.025348092092423467,
    0.0,
    0.02091352962479857,
    -0.021762537321393365,
    0.0,
    0.05339673995604408,
    0.0,
    0.02838275057175279,
    -0.036544449569568045,
    0.003098925130767132,
    0.030108141199480187,
    0.019955071342831306,
    0.04743994052499125,
    0.008159882515152584,
    0.012596905156690734,
    0.0,
    0.00457427841944575,
    0.03636269968817217,
    -0.0019897576315685466,
    -0.014086954672105884,
    0.0,
    0.0,
    0.0,
    -0.013885653291670052,
    -0.020290921301065835,
    -0.0008637020386734945,
    0.0,
    0.02169003175447464,
    -0.033923601631013614,
    -0.049551675902835,
    0.015266256664009702,
    0.0,
    -0.07075965696617106,
    0.01750455357962345,
    -0.011735180007598522,
    0.0070427513774162795,
    -0.010034116290588814,
    0.0011469859741379507,
    -0.035564794854814154,
    -0.01363004658798475,
    0.01415089685448609,
    0.0,
    0.012652843341516324,
    -0.0004681719242120425,
    0.011833854750840443,
    0.011886348017358099,
    0.00016292075136340622,
    0.0021132548315137964,
    0.035844583390159675,
    0.0,
    -0.0033961456005504797,
    0.002133960461362016,
    0.0,
    -0.014580403398887136,
    0.0,
    0.00495207808588658,
    0.0,
    0.004703021191034418,
    0.0004764687781812819,
    0.00379320336202718,
    0.009913601554396335,
    0.005924601924455027,
    0.002938092958574737,
    0.00556198545027095,
    -0.02728096659740863,
    0.0028747648293258755,
    0.0063647390023145465,
    -0.011223540824235538,
    -0.015855531511731396,
    0.009121632827549528,
    0.001205129097997025,
    -0.020830533613262057,
    0.0,
    0.0,
    0.035076736181493554,
    -0.0103875327835715,
    0.0,
    0.0,
    0.0,
    0.0,
    0.0,
    0.0,
    0.0,
    -7.85221532309584e-05,
    -0.004242054951849205,
    0.041428470798626195,
    -0.026002648721551946,
    0.014865836914473659,
    0.005866968731994304,
    -0.005075576317748732,
    -0.0021692208993621706,
    0.0,
    0.0,
    0.016568815217169026,
    -0.004984568980909009,
    0.0024774714917745744,
    -0.001976938935128229,
    -0.008432671143329507,
    0.0035911210800332943,
    0.0,
    0.0,
    0.0,
    -0.015994858365436706,
    -0.002181161564793174,
    -0.017030288260501812,
    0.002759158639176032,
    -0.012222176381322686,
    0.01718374752308434,
    0.010747542640848127,
    -0.01487513007634308,
    0.0028492864713160716,
    0.0,
    -0.028044201122067236,
    -0.016024348306347167,
    0.0,
    -0.0008490101441182975,
    -0.01117221312044346,
    0.0,
    0.0,
    -0.048461522449574926,
    -0.001611145889929054,
    0.04489169367648638,
    0.01263017516329874,
    0.000230768395083397,
    0.017195293187625253,
    0.003665854645546242,
    0.0,
    0.004243695712364683,
    0.01612583919869774,
    0.0,
    -0.005206343471932835,
    0.0,
    0.0426011326948467,
    0.0,
    0.0,
    0.009830476642814142,
    -0.010787109211513702,
    -0.022580902833611523,
    0.006399220665232735,
    0.011245357661005735,
    0.0,
    -0.0005338601936755445,
    -0.06833217027027226,
    0.009660856644197975,
    0.0,
    -0.001845195769519005,
    0.030466206159180217,
    -0.01863773107788727,
    -0.0014967090085301429,
    0.0,
    0.0,
    -0.0036265940904479043,
    0.0,
    -0.03859630943591635,
    0.0,
    0.0247448729478303,
    0.03144293747158404,
    0.029462063408374543,
    0.002476105590825425,
    -0.007124589641000291,
    -0.024209000177261544,
    0.0,
    0.0,
    -0.006409257122198387,
    -0.001988231208369753,
    0.004744417347630276,
    -0.02550825489502468,
    0.0,
    0.0,
    -0.0043730017759515995,
    -0.009593463593416833,
    0.005263847919814686,
    0.0,
    0.0,
    0.0,
    0.0,
    0.0,
    0.013199520099878953,
    0.008192040320627807,
    0.018694612243813927,
    -0.04132997772714745,
    0.027913682380626855,
    0.005282337558497176,
    -0.049023731945985256,
    0.0,
    0.0,
    0.024410688227747723,
    0.0,
    -0.03762454401259146,
    -0.016930800325738602,
    0.0,
    -0.01176680386436489,
    0.0,
    -0.016182383252831903,
    0.001118098164255276,
    -0.0009828204923444652,
    -0.01459218843156645,
    -0.02513323770542152,
    0.0,
    0.0,
    -0.001395284844101469,
    0.012247920279775377,
    0.02624221269811349,
    0.0,
    0.020266387614135434,
    -0.015009628606327605,
    -0.008320679499071388,
    0.0008722832545688085,
    0.0025995246286181313,
    0.0,
    0.0,
    0.0,
    0.0,
    -0.005527350235936434,
    0.006798375618719023,
    0.03339748512253444,
    0.002911022900033168,
    0.01677000211595076,
    0.0,
    0.008766636178355087,
    -0.031123955566516724,
    0.03740116484928556,
    0.0,
    0.014221330553392716,
    0.019593986228235268,
    0.026468650924499428,
    -0.009613467478419981,
    -0.008719733788989135,
    0.029531144914415892,
    0.0,
    0.007631360175288632,
    -0.0006176611042568035,
    -0.0058274094227201674,
    0.009643504574259186,
    0.0,
    -0.018864730797317864,
    0.008432211904678953,
    0.0,
    -0.004318370517323124,
    -0.012180360182559927,
    -0.01201193211539648,
    0.005330187001250579,
    0.0,
    0.0,
    0.0,
    0.011620063709319627,
    0.0,
    0.004117732457338453,
    0.0,
    0.0,
    0.011252653942010244,
    0.06083055961035238,
    -0.00963131906230272,
    0.0,
    0.0,
    0.0,
    0.0,
    0.0,
    0.0,
    0.033128837512827,
    0.0027726391368078974,
    -0.015941980704455242,
    0.023307524560971998,
    -0.0072470350726255885,
    0.0,
    0.008540614818840702,
    0.0,
    0.015027837036109064,
    -0.013788790678086024,
    0.0,
    0.0,
    0.01460996527886364,
    0.011932436671413546,
    -0.01416734495828957,
    0.0033392458053771975,
    0.0,
    -0.0010389203197332672,
    0.0003349346179463698,
    0.0,
    -0.03214327734051252,
    0.017639473951877413,
    0.016474347714374605,
    -0.012422411385340207,
    0.0,
    0.0,
    0.01596504544848193,
    0.0,
    0.015153838056194158,
    -0.007928059855923583,
    0.024885076864976177,
    0.03359923648295578,
    0.005670057081956767,
    -0.02263105948085464,
    0.016441546063192872,
    0.0,
    0.0,
    -0.007676884679895796,
    0.017214362140841898,
    -0.015768749462777516,
    0.019033296577853357,
    0.004633590513488502,
    -0.00734192056044867,
    -0.0010829372774384725,
    0.0,
    -0.0022909017836200145,
    -0.001022464745016268,
    0.03863644764171569,
    0.031520847549303,
    0.0,
    0.08197645994591879,
    -0.002506306603592752,
    -0.005378474092671521,
    0.019591775117075313,
    0.02699863813312948,
    -0.001818374286298914,
    -0.004908870550926251,
    -0.011366347332003764,
    0.0,
    -0.005977788010251579,
    -0.016348873775542765,
    0.0,
    -0.0017235925515263206,
    0.0,
    0.0,
    0.001372695167671824,
    0.039876785195844484,
    -0.0059762597875071604,
    0.0,
    0.0,
    -0.001177145330086841,
    0.013052166476376994,
    0.0,
    0.008601486669629245,
    0.0,
    0.0,
    0.011832114900988362,
    0.0,
    0.005564039639059826,
    0.0008247725822383563,
    0.0,
    -0.009273229628816859,
    0.0,
    0.0320636254242119,
    -0.015865561587150297,
    -0.0007149310900821428,
    0.0,
    0.001944710287867633,
    -0.01298432549011712,
    0.005537911634237075,
    0.0,
    0.019709765397860218,
    -0.0316379728822681,
    0.026851438231579008,
    -0.008098470318014356,
    -0.022724229571028376,
    -0.02399865490404186,
    0.006191014260283375,
    0.0023722047950183157,
    -0.015979306644730903,
    -0.025910994688865634,
    0.012497799302873244,
    0.010486237208231395,
    -0.014469432626272403,
    0.005598700241839459,
    -0.0741202682513966,
    0.0,
    0.04672470867873633,
    -0.0007011741858927541,
    0.03056642372563589,
    0.0,
    0.028221787741147836,
    -0.03576028470530336,
    -0.006954175897638388,
    -0.009025041228987361,
    0.0008213877523011843,
    -0.005112843787891736,
    -0.029592376058151466,
    0.0,
    0.005632863673499942,
    -0.0029270454739831497,
    -0.000986792134177368,
    0.008571969698617551,
    0.0020168447333890074,
    0.0,
    0.03780696324183159,
    0.0,
    -0.027127257681418816,
    0.0,
    0.015345545991481595,
    -0.010813624068634044,
    0.0,
    0.07478462076493497,
    0.0,
    0.0043396828533279735,
    -0.024759062929720032,
    0.017963184554566518,
    -0.01575894467963257,
    -0.02177790584908783,
    0.0,
    -0.01318658170830939,
    -0.00037621449944241254,
    0.011906920669213146,
    -0.05407791192838679,
    -0.04457020109341676,
    -0.0027327256673958175,
    -0.00322902048791614,
    -0.0020908739120316113,
    0.0,
    -0.005128885954157444,
    0.02400960593610816,
    0.0,
    0.0,
    0.002218796525182641,
    0.00861447909194727,
    -0.011140159748418867,
    0.05436290550209413,
    -0.006729561527940568,
    0.009883811510297295,
    0.013941263560573649,
    0.0,
    -0.00510096416827069,
    0.014628828858909721,
    -0.01827763014289571,
    -0.004909877276065124,
    0.0,
    0.0,
    -0.005924482107910002,
    0.01365585812996256,
    0.0,
    0.013663511790765777,
    0.00027634028261529377,
    -0.014910465947725434,
    0.0309303832907721,
    -0.00442639917044558,
    0.031011324432649364,
    0.003422558210716693,
    -0.015424987436989663,
    0.001368093734184394,
    0.025434345762679993,
    0.0,
    0.004687790918902353,
    -0.06996185183476047,
    -0.007365505743844134,
    0.03105996181314463,
    0.0222467942267858,
    -0.06107716521915553,
    -0.0008102619163624823,
    0.0,
    -0.003376976437022297,
    0.01875065472025304,
    0.0013047273162841472,
    0.0,
    -0.008192746482604898,
    0.0,
    0.07452392154302669,
    0.01706622283813318,
    -0.0040008119693459914,
    -0.011039323736468003,
    0.0,
    0.0,
    0.0,
    0.00027086232222678136,
    0.0,
    0.0,
    -0.0017597140326149417,
    0.033536202954702526,
    0.0,
    0.006645373240959206,
    0.0,
    0.0,
    -0.022656800741022477,
    -0.007917088314691893,
    -0.0034047804495443024,
    0.001802175856204824,
    -0.03512269565899475,
    0.0,
    -0.011983568752531454,
    -0.031281699571280595,
    0.0,
    0.0007672178329646556,
    -0.02992293040052898,
    -0.01013107130107142,
    -0.015454075892088043,
    -0.06295510336593012,
    -0.0034319343466068047,
    -0.0002320763958456204,
    0.012558444682603096,
    0.001798493861427376,
    0.0091861596477242,
    -0.004732428346335558,
    0.0,
    0.008143051110071896,
    0.0,
    -0.02626510653225909,
    -0.009343952458948293,
    0.0,
    0.0,
    -0.022198411095574806,
    -0.00143366757293505,
    0.030029474706058445,
    -0.004581926319846767,
    -0.0071480564949175825,
    0.0,
    -0.01587902065065988,
    -0.015859171506324186,
    -0.01987328060570775,
    0.028487363478417817,
    0.0,
    0.006766739044085106,
    0.01706127410675904,
    -0.009770147773437264,
    -0.0067319264924156595,
    0.0,
    -0.03728943880392968,
    -0.06017788551608966,
    0.031174319356998926,
    -0.012409443272771072,
    0.0,
    -0.006637987598045355,
    -0.011931405401624864,
    -0.012636051477613187,
    0.0,
    -0.04007344513989797,
    0.0,
    -0.026763707846699254,
    0.0,
    -0.0009326306113268045,
    -0.0020378818137717623,
    0.018531511342571055,
    -0.002879181616415807,
    -0.013938390565362844,
    0.031141160926066364,
    -0.0023449746100461474,
    -0.024936297650303512,
    0.0,
    0.0,
    -0.002861365837807602,
    -0.02258015798922334,
    0.0,
    0.0006289531889968262,
    0.046035618827687835,
    0.0,
    -0.012915416032809731,
    0.0,
    0.0,
    0.0,
    -0.005878115289282793,
    -0.005119296708985288,
    0.020492119563850504,
    0.0012636701713421683,
    0.013346091891400319,
    -0.002115621755678551,
    0.0,
    0.0,
    0.0,
    0.0,
    0.004506372359596154,
    -0.0061779400762383635,
    0.0024298907365240168,
    0.0,
    -0.05423577256579424,
    0.0,
    0.015081540061917966,
    0.0,
    0.0,
    -0.03470748939358854,
    0.006666698627931631,
    0.012149754813875159,
    0.0,
    0.0,
    0.015192283277225879,
    0.012110376077730559,
    0.0,
    -0.0018391900200805647,
    0.06563056719644954,
    0.009006576034678379,
    -0.006446499071261471,
    -0.010317328912307017,
    -0.02155967657706081,
    0.015197929616010622,
    0.03365175528846476,
    0.004625480200535417,
    0.0037590928926383663,
    0.004734434566548023,
    -1.8010455852998922e-05,
    0.02866665056645007,
    0.006536034730726804,
    -0.0017675452222861944,
    0.0,
    0.005069073232166915,
    0.0,
    -0.02223538919230001,
    -0.01531820613436264,
    0.0,
    0.005215931782747742,
    0.015195466275494644,
    -0.027957696142170828,
    -0.027566102062609964,
    0.005667961265599878,
    0.0,
    0.0,
    -0.0028829252450305893,
    0.0,
    0.0,
    0.011646349349814246,
    -0.010930352487352683,
    0.0,
    0.004437906813362811,
    0.0035636794746787444,
    -0.004889333404004788,
    0.0021681290325256605,
    -0.015000555774937028,
    -0.010475022621087654,
    0.010508212321475249,
    0.010969231473978838,
    0.032255530899108854,
    -0.015267002198903468,
    -0.013721737392873058,
    -0.0002665572232093532,
    9.761658355875955e-05,
    0.0,
    0.03826315571715331,
    0.020786460710326495,
    0.0022827357511489453,
    0.013746921965360513,
    0.0,
    -0.004844939596978811,
    0.001613035568404768,
    0.0,
    0.00436450202632347,
    0.0004653637062338589,
    -0.005194226232536899,
    -0.031037785372089774,
    -0.0002586540355602932,
    0.01720266374302372,
    0.0,
    0.0,
    0.019768194496314652,
    -0.01984974319235893,
    -0.0071541026360886694,
    -0.011853826507529525,
    -0.0020351815798012297,
    0.008162263823022447,
    0.012991103806713925,
    0.023032614652417998,
    -0.060929512026895165,
    0.0026438673677267027,
    0.014632826345735676,
    0.0,
    0.0,
    0.0023516207316841018,
    0.048823083740279445,
    0.0,
    -0.014307365383742141,
    0.022264575721898515,
    -0.015682385353343674,
    0.04347610495109665,
    0.0,
    -0.000508197941283358,
    0.0,
    0.006724661690602272,
    0.00252176825242477,
    -0.010212089745880008,
    -0.019487317714751203,
    0.008129513136520848,
    0.025420696765317257,
    0.02985136973014764,
    0.023506595429892967,
    0.020571850631412918,
    0.012603040799941338,
    0.018489886407012324,
    0.0,
    0.0,
    -0.021035544356732973,
    -0.015222213295684224,
    0.0,
    0.0,
    0.0,
    0.0,
    0.0,
    0.0,
    0.00010609780262721447,
    0.004371094907697037,
    0.012789221542786907,
    0.027238839121429544,
    -0.021056413658335417,
    0.017350934098884715,
    0.02820542320866646,
    0.04434360031066115,
    0.047907533203155155,
    0.0004360763773858711,
    -0.0022096057178088405,
    -0.017777177088751914,
    0.0,
    0.0,
    0.017765492594822813,
    0.015526194278191163,
    0.0,
    0.0,
    0.009436971029673521,
    -0.0024745297347023524,
    0.017212020411903537,
    0.0,
    -0.000765212222097571,
    0.0,
    0.06239593103130651,
    0.0002749718120299125,
    0.04217820340519569,
    0.0,
    0.0037159163674588334,
    0.019312675948205738,
    0.0027416532735642075,
    -0.02520650771144472,
    0.0,
    0.012407851626916164,
    0.0,
    -0.022369946430993153,
    0.0,
    0.03193704189577922,
    -0.015603917395771737,
    0.0,
    -0.009578556264450913,
    0.042515698246770484,
    0.0,
    -0.010044660739865647,
    0.0,
    0.0,
    0.0,
    -0.0037098430353317644,
    0.015699647450137674,
    -0.01376942689064173,
    0.0,
    -0.012109267211342152,
    -0.00463224165298399,
    0.005674163833602829,
    -0.005907453310758616,
    -0.017246295927228438,
    -0.009456754415639408,
    0.0,
    0.046639344346675736,
    0.0,
    -0.0057363669470413044,
    0.029597616848866425,
    -0.022596951152339683,
    0.008847484829615004,
    0.0,
    0.009073809853900607,
    0.01192838937738984,
    -0.011357959389820291,
    -0.033249013362611116,
    0.019438959711916073,
    0.020242357967973565,
    0.0,
    0.0,
    0.0,
    -0.004871426691987768,
    0.005183390219406836,
    0.004552354172914268,
    0.0,
    0.0,
    0.020969965609177726,
    0.00346863363664393,
    -0.013663739325264905,
    0.002868540558141662,
    -0.0038355446784457013,
    -0.007582796373704147,
    0.005293831069151719,
    -0.006732207303989832,
    -0.009065412027169366,
    0.00624630003556816,
    0.02188789951633497,
    -0.02440305457683828,
    0.0,
    0.0204549446582275,
    -0.0006583563999400248,
    0.022789823990862317,
    0.02834354811469538,
    0.0006348398881249838,
    -0.002055751212465966,
    -0.03071347293469494,
    0.010401059422800962,
    0.03815156105679542,
    0.0,
    -0.0038113872094911283,
    -0.025661740530710034,
    0.0026324179437317683,
    0.009678392210289552,
    -0.015602197909782877,
    0.0,
    0.0,
    -0.02379503495264245,
    0.0,
    -0.0028607459166856575,
    0.013105023305063994,
    -0.010578947452632053,
    -0.007325342565235151,
    0.015159291566820722,
    0.0,
    -0.01858750064919489,
    0.02467413725904775,
    0.014004623367534797,
    -0.002185776608545331,
    0.0,
    0.0030077486493562894,
    -0.009002510868926842,
    0.0,
    0.019561666307697505,
    0.0,
    0.0,
    -0.01446705920817567,
    0.0,
    -0.025488220257791783,
    0.0,
    0.01542948449872291,
    -0.0042393820153181815,
    -0.025025348544835506,
    -0.006313278104262946,
    0.0,
    -0.010117577336182092,
    -0.022213714698804753,
    0.021730217948692912,
    -0.004214406352461632,
    0.01715427997846714,
    0.0,
    0.017619423264556823,
    -0.04445922094772217,
    0.0,
    0.009347426124538821,
    -0.027773705808361086,
    0.002757101724037874,
    0.023681587591125583,
    -0.02052639996556147,
    0.0,
    0.012972110916934712,
    0.013442751859500973,
    -0.0013101705284286507,
    -0.012872998615118038,
    0.0,
    0.0,
    -0.0200545215386884,
    0.04262890994898391,
    0.021972668724502372,
    0.0038259600360769403,
    -0.012652827247881812,
    0.0,
    0.014514546188340161,
    0.006015407540511613,
    -0.004812854482492475,
    0.0077360555340621725,
    -0.004912160913699417,
    0.0,
    -0.004858682156558953,
    0.0,
    0.03790737549422272,
    0.0,
    0.008801051904321592,
    0.004318091495994427,
    -0.002312175087243248,
    -0.007044764976166253,
    0.006638778101747331,
    0.021886945752906947,
    -0.006965538813285965,
    -0.001962511383229674,
    0.0,
    -0.011663539579047337,
    0.0,
    0.006974837895516036,
    -0.011117395709866907,
    0.0,
    -0.01146228338239338,
    -0.028705186999524904,
    0.0,
    0.0,
    0.05393708464172564,
    0.003339735709531383,
    0.07812907043209093,
    0.0,
    0.0,
    -0.017670991239801922,
    -0.017172378980828823,
    0.011871907462372296,
    0.03929056016914659,
    0.0,
    -0.026142448356191738,
    0.012671925350776603,
    0.007082858063660741,
    0.0,
    0.021372709629149816,
    0.009890931982601318,
    -0.0064073634294953856,
    0.0,
    0.0,
    -0.01559971655893404,
    -0.0016128556327790287,
    0.011817544124788817,
    0.0,
    0.0,
    0.0,
    -0.002788310453713622,
    0.005526421528040827,
    -0.03571442328698702,
    -0.015181937149270826,
    -0.015571131025939341,
    0.011146404784385834,
    -0.008916097004501163,
    -0.03796607007815275,
    -0.016074391465934933,
    0.009265207290224758,
    -0.0038819385579973546,
    0.013760997395687181,
    0.0,
    0.0,
    -0.026809607442304543,
    0.0,
    -0.006432156967628958,
    0.0008675725180080532,
    0.039973006413731034,
    0.0,
    0.0,
    -0.016610919512257294,
    0.005580580595453162,
    0.0,
    -0.015539350486276497,
    0.023174313513800112,
    0.009282521873937966,
    0.0,
    -0.0015837715793060394,
    -0.001624963536399598,
    0.004997170878079918,
    0.0,
    0.03111398674978861,
    0.005896386199858851,
    0.002900977758661624,
    0.0,
    -0.011932717498944836,
    0.016967956571723296,
    0.007368598187393062,
    0.031381898261852635,
    0.022937253750060924,
    -0.04125023252017599,
    0.006298476928902628,
    0.00741784532239924,
    -0.016282711736431456,
    -0.0025161183958862417,
    0.023758841281824806,
    0.009633108032215634,
    0.0008359629907043709,
    -0.012480573107480252,
    0.007607840269637924,
    0.0,
    0.031125849249959463,
    -0.002503730092192027,
    0.025784555827344322,
    0.01111822526789835,
    0.03020661826754635,
    0.0,
    -0.01430428891379338,
    0.02790887395024367,
    0.0,
    0.0,
    -0.01940206074543844,
    0.0,
    0.0,
    -0.026643872289586406,
    0.017358706351360536,
    0.0,
    0.032807591338189245,
    0.046607184699984115,
    -0.02936551917015964,
    0.030219415304268235,
    0.0,
    0.009263653665918904,
    0.016023355456443393,
    0.005175855164099456,
    0.015686004778211544,
    0.0,
    0.0,
    0.010764201985225043,
    0.0,
    0.0,
    0.028701731838365174,
    -0.007376501982657012,
    0.021218252139770685,
    -0.009431729637058224,
    -0.06310864116700243,
    -0.008749516579635188,
    -0.0006649915894946268,
    -0.017019438898572384,
    -0.0012645027369074596,
    0.0,
    0.012939427308286556,
    0.004370236788399776,
    0.0,
    -0.0001626422271137247,
    0.008531791169068789,
    -0.03031931391111945,
    0.004155238601251331,
    0.0026737175114083934,
    0.0,
    -0.0017500035685997877,
    0.014428105832153305,
    -0.0021663983212742133,
    0.015358991611321305,
    0.04952813965483232,
    0.0037703792539139722,
    0.0,
    -0.009777910775829162,
    0.023526931609315894,
    0.006906068173772034,
    0.006349643531281352,
    -0.003364241936085273,
    0.0,
    -0.02601768617783801,
    0.02018389724182159,
    0.007866714114244841,
    0.005207737435926284,
    -0.014338615153644426,
    0.0,
    0.011628845526924905,
    0.0,
    0.021003096511319187,
    -0.005261600873407749,
    0.0,
    -0.005435130127974727,
    0.0075877926708609955,
    0.045906011821984435,
    -0.020293838916576854,
    0.03210425121032118,
    0.02167227994863073,
    0.004605481756034326,
    0.02264195453038989,
    -0.021592987201524312,
    -0.008457847070195515,
    -0.017270979885467237,
    0.020267173733414093,
    0.008753908419395702,
    0.0,
    -0.014738423559337242,
    -0.008459985348446131,
    0.0,
    0.015156482996235815,
    -0.012829471339753973,
    0.00397996683299384,
    0.00737020524775984,
    -0.009384833085997286,
    -0.0022337273447304786,
    -0.0341895223538724,
    0.029755742548082657,
    -0.0011038810716104198,
    0.0,
    0.0,
    -0.027800513016273676,
    0.016919684242564192,
    0.0,
    0.0,
    0.010410293270719058,
    -0.009421893195747412,
    -0.014942753258930835,
    0.0,
    0.0,
    -0.0007984046724318695,
    -0.018356945479601885,
    0.0,
    0.018423692126286993,
    0.014802009342736141,
    0.041472463007992996,
    0.0,
    0.024929581280970455,
    0.0,
    0.007003964495725108,
    0.018857488940593855,
    0.0,
    -0.02587594111537588,
    0.0,
    0.08074345599615662,
    0.008997698002676071,
    0.0,
    -0.02157934487706957,
    0.0,
    0.003299753969178248,
    -0.006700237812209547,
    0.0,
    0.0,
    0.006095332671061493,
    0.028494172875271232,
    -0.0017285128642751761,
    0.0,
    -0.0006931422981571524,
    0.0,
    0.0,
    0.004129342240245903,
    0.0,
    -0.018527041792249333,
    0.0,
    0.003622122305648445,
    0.07214954746947855,
    0.027142632270464966,
    0.027057248771179227,
    0.08001811961335921,
    -0.003526387276714073,
    0.03792913917071615,
    0.0,
    -0.010403378097933734,
    0.0,
    -0.06327537643349741,
    -0.007359900090315173,
    0.043177034532601515,
    0.027329590341679914,
    0.0,
    0.0,
    0.014168148549129025,
    0.020084494044825704,
    0.0,
    0.023264271873589603,
    -0.009766166954391515,
    0.0,
    -0.001193995893826472,
    0.022748447255329613,
    0.025998483654914386,
    -0.005490248853239437,
    -0.006798463887223217,
    0.00020077444631219805,
    0.0,
    0.0030976477146531854,
    -0.009617784310045946,
    -0.010825802469194767,
    0.0032679972060963847,
    0.003498364530330621,
    -0.006681436250030663,
    0.0,
    0.006059391640113459,
    -0.01341368706670251,
    0.02764523850868962,
    0.0020300143723658726,
    0.013490698785391941,
    0.01028347160543502,
    0.04517150033924218,
    0.0,
    0.0,
    0.0026329942928488073,
    0.014643015855305162,
    -0.02947515753632552,
    0.0,
    -0.003534091748353435,
    -0.01706556920081094,
    0.0,
    -0.01025149917745708,
    0.0,
    0.0,
    0.0,
    -0.011034162935570501,
    -0.0022680591312880336,
    0.012652707159829689,
    0.01173961782550133,
    0.025129270570642275,
    -0.011151493252430623,
    -0.006438802538886853,
    -0.009265300004048108,
    0.0,
    -0.019089587718250305,
    0.012048069363657894,
    0.006838917975525589,
    0.0,
    0.0,
    0.0,
    0.0,
    0.0,
    0.028892471931134717,
    0.0,
    0.02547507406710348,
    0.0,
    0.026544112484217106,
    0.027798295809503177,
    -0.0011858410159806293,
    0.003501910424052705,
    0.0,
    0.0070171472379452725,
    0.0,
    0.0,
    0.0,
    0.0,
    0.020903732809397023,
    0.022611872302736397,
    0.0003271835860396145,
    0.036713415543105914,
    -0.010385236315805029,
    -0.026447489001874394,
    -0.01348306796491627,
    0.0,
    0.02053712657661949,
    -0.010864229806179147,
    -0.0396016132730664,
    0.02063782705710295,
    -0.008443845687230682,
    0.0004909381059363897,
    0.014405364501931793,
    -0.007498698523269106,
    0.0,
    -0.008036928490277212,
    0.007511830127862713,
    -0.012389688123254321,
    -0.004093516827443654,
    0.0,
    -0.012200848794570741,
    0.0,
    -0.024438895696520312,
    0.0,
    0.0273257628025342,
    0.0,
    0.0,
    -0.013152598109490269,
    0.0,
    0.0,
    0.0,
    0.0,
    0.0009620368307619424,
    0.002989438931917504,
    -0.05259504371248038,
    -0.006634831740147812,
    0.030922412302418233,
    -0.006239566183382201,
    0.010189536876566381,
    0.0002817049498754331,
    0.011144893325708291,
    0.005534908034621531,
    0.018947632649730487,
    -0.002276962557518096,
    -0.026373106957936848,
    0.011970151311621383,
    0.0101965121907015,
    0.010920507808391494,
    0.0,
    0.03671791287906208,
    -0.007758232778303155,
    0.016811124501966826,
    0.007662676998041044,
    0.0,
    -0.0007864586584773842,
    0.003205156699406075,
    -0.05503363261592619,
    0.01080763517405608,
    0.01717594958410748,
    0.0,
    0.000843635873099282,
    0.0,
    0.04569108113154108,
    -0.005264877041209394,
    -0.014362889538375112,
    0.0,
    -0.016767628166213185,
    0.0,
    0.007655915427482163,
    -0.006945265672357098,
    0.0,
    0.014673201297746139,
    0.0,
    0.004150579324413873,
    -0.03988324787100031,
    -0.0032227848605419756,
    0.002168864771447363,
    0.0019182334268402217,
    0.0,
    0.007485511001508816,
    0.016465581483067683,
    0.012714357078374424,
    -0.002421717787352961,
    0.028343536870827093,
    0.006357761571391797,
    -0.014627563818050355,
    -0.02126854908330897,
    -0.0004645499104408998,
    0.0,
    0.0,
    0.0,
    0.002701642411380862,
    0.01192676494751818,
    0.010683636323409042,
    0.0,
    0.004132958471502086,
    0.0,
    0.0,
    0.0,
    -0.035038045504235345,
    0.0,
    0.0025768161601904087,
    0.009334232095459014,
    0.010904163235735441,
    0.0,
    -0.017107868472297477,
    0.018845393466983,
    -0.006340232752507827,
    0.0,
    -0.015551949255966951,
    -0.00329222859460643,
    0.0,
    -0.015946257982626198,
    0.004034021342737612,
    0.0030172439239277275,
    -0.0016630497819841708,
    0.017828506298485973,
    0.0,
    0.029609167143983088,
    0.013546008742952897,
    0.0,
    -0.01053894137505812,
    -0.009280578009772888,
    0.026971875339243206,
    0.0,
    -0.0146980262478349,
    -0.038787342014828814,
    -0.0003574587344974282,
    0.011126198799609133,
    0.0,
    -0.00492770105638156,
    -0.022526364237895006,
    0.015711882172132097,
    0.041103925106241446,
    0.006635459509901905,
    -0.026815864978039086,
    -0.00902234602871926,
    0.015079081145572161,
    0.030710131008769577,
    0.014005243081361153,
    -0.009440117779621154,
    0.0,
    -0.027232406306791305,
    0.054253422233420695,
    -0.008693152714762275,
    -0.043951652923759,
    0.00011539281181751975,
    -0.009223070151455627,
    0.046466388259228164,
    -0.013174664400995822,
    -0.055744994597697446,
    0.010647374917430136,
    0.0,
    0.05961131801843516,
    -0.014201160891213387,
    -0.02228962840393422,
    0.0,
    0.015179801594036715,
    0.015951213743074743,
    0.0,
    -0.002878310410614105,
    -0.014876170632730163,
    0.046083322021700346,
    -0.022400409405705302,
    0.0024995619035341615,
    -0.0024832303179199884,
    0.0,
    0.0,
    0.006903638438527472,
    -0.030302954037086088,
    0.008346401049767695,
    0.016121150265288063,
    0.014944551193241463,
    0.0,
    -0.017811108459669846,
    0.0,
    -0.004500400996993089,
    0.005475120606592462,
    -0.01042107332642294,
    -0.02763979023299452,
    -0.013235421613726107,
    0.0,
    0.0,
    0.015780789782435477,
    0.01388237498083736,
    0.0025283673433358234,
    0.0,
    -0.03175738694120813,
    -0.014088465785326479,
    -0.006307740279496766,
    0.015475339665367264,
    0.0,
    0.0,
    -0.014499168365346454,
    0.04082463524202712,
    0.0,
    0.0034211127299605495,
    0.0,
    -0.010214115662674099,
    0.060360178806027676,
    0.03055411700743012,
    -0.000935009653803125,
    0.03438745377508368,
    0.005144307984338078,
    0.0,
    0.0034162784964446935,
    0.004833404832814956,
    0.03592614674854413,
    0.04231121123186886,
    -0.017278084797434996,
    0.0,
    0.0,
    0.0,
    0.0161288613582327,
    0.0005494554236889434,
    0.005362115081535944,
    0.00019996712372326346,
    0.0,
    0.014174700284012041,
    0.0,
    -0.031680520935245156,
    0.023272826286746887,
    0.007078568991109745,
    0.0,
    0.0,
    0.01640406929799458,
    0.0,
    -0.004411237802090035,
    0.0,
    0.0,
    0.0,
    0.0,
    0.0,
    0.0,
    0.0005203328421129967,
    -0.0010979977370488105,
    0.0,
    -0.013164132217684534,
    -0.010087786099208351,
    0.0,
    0.0,
    -0.010723302573556545,
    0.014440287751755841,
    0.0,
    -0.0018281357990258262,
    0.005222867382914645,
    0.0,
    -0.006268534762628813,
    0.009186396258477298,
    0.029405219420751208,
    0.0,
    0.0041869886301451895,
    0.0,
    -0.0005565339813249854,
    -0.007103320928969349,
    0.016043198897465683,
    0.0,
    -0.0015257418080378915,
    -0.0011782586078170738,
    0.0,
    0.0066876057334217115,
    -0.02915528145050106,
    -0.025075094200303474,
    0.03573840021863884,
    0.009801913296100442,
    0.0,
    0.0,
    0.014793670473446393,
    -0.013518766839996034,
    -0.0053151104189974535,
    0.0006905442601428412,
    -0.004137616147650785,
    0.0,
    -0.0025132167381447875,
    0.020523808925678025,
    -0.028256290889901375,
    -0.005460608876218309,
    -0.026530729441737816,
    -0.0024870604182877535,
    0.0,
    -0.004212188594230056,
    0.04112931370862212,
    0.015602294817392245,
    -0.00213472730963908,
    0.0,
    0.029533832488804465,
    -0.008642176768042313,
    0.0,
    0.00918105932895732,
    -0.018090671782428267,
    0.01862178688391349,
    0.035695063533912746,
    -0.000710442532547203,
    0.0,
    -0.017280559823107566,
    -0.011188396495217306,
    0.0824190169481973,
    0.014672683303732292,
    0.01821773768752939,
    -0.008369330453357512,
    -0.00016226857318347516,
    0.0,
    -0.004282872677224368,
    -0.011714713534464462,
    0.0092059390069265,
    0.0,
    0.0,
    -0.0053470247730684215,
    0.0,
    0.0,
    0.020646618837410848,
    0.0016843348649796168,
    -0.02612286996486841,
    -0.11351902441341638,
    0.01128624761378608,
    0.018669993325591307,
    0.004949862185011784,
    -0.003691216213428577,
    0.014795016277417779,
    0.0,
    0.021531840901702206,
    -0.027624232017808597,
    0.0,
    0.002842817631642286,
    0.0,
    0.005645354955689538,
    0.0,
    -0.01849461597091706,
    0.0,
    -0.0014344947888041688,
    0.0,
    0.030618578698556793,
    0.0,
    -7.047164166054719e-05,
    0.0,
    0.004212609780058409,
    0.0,
    -0.027481605131725716,
    0.013799542446495266,
    -0.010267300510312521,
    0.0017876992054011549,
    0.0,
    0.009474863832371238,
    0.027135335179480864,
    0.011719482201879801,
    0.009787409428854664,
    0.0,
    -7.245605713426035e-05,
    -0.008599127640004306,
    0.0057412137489527585,
    0.013436814785107198,
    0.019032393227653415,
    -0.019747344725718236,
    -0.019186181170364136,
    -0.015505842126319561,
    0.013009492825896174,
    0.0,
    0.0,
    0.0,
    0.017006402277915417,
    0.017334076016139108,
    0.009799602735877032,
    0.0,
    0.0,
    0.0,
    0.0010205942974556383,
    0.0,
    -0.02372970645737045,
    0.05801174434282428,
    0.042910143570052454,
    0.0,
    -0.01871041304215069,
    0.017618221371741034,
    0.00927504235805328,
    0.015976387115565493,
    0.026503425653872554,
    0.014591676759903771,
    0.0069971286842273345,
    0.0,
    0.0,
    -0.00358440954584371,
    0.03122848121433835,
    0.004331453886523385,
    -0.004690553200405384,
    0.0,
    0.014596315647121256,
    -0.011610017278622032,
    0.055389436066549017,
    0.0,
    0.030295719766395994,
    0.013981313036121854,
    -0.02347536879239565,
    0.0,
    -0.025571277695006157,
    0.05589777373054691,
    -0.013608214383858525,
    0.002207070646509987,
    -0.039083163731073386,
    0.00621253502406829,
    0.013761141697535265,
    0.0,
    -0.018934910992867565,
    -0.010496447704556943,
    0.0,
    0.006306671468059882,
    0.0,
    0.012628881877329167,
    0.0,
    -0.0018896676362613108,
    0.019826101724520404,
    -0.016524529288285125,
    0.0,
    -0.011325220402833422,
    0.0,
    -0.0027915293944216764,
    0.0,
    0.0437046525031408,
    0.0,
    -0.0016208815255923303,
    0.0,
    -0.01485171190466361,
    0.0,
    -0.0008735782007728584,
    0.0004924961543756279,
    -0.007556385396640462,
    0.0,
    -0.04789641146134553,
    0.03669523649391028,
    0.0,
    0.04967138548045579,
    0.004587634381435419,
    -0.004261007839387265,
    0.0006908912794304177,
    0.0,
    0.0,
    0.0,
    0.011932785683659136,
    0.0095066003266175,
    -0.005804520720797376,
    0.009265702448232797,
    0.005572488630460184,
    -0.004147431390823165,
    -0.02142906183891993,
    -0.01632208248548523,
    0.0047644784967435854,
    0.009361000083627074,
    0.00694689411037196,
    0.0,
    -0.0016617381714340552,
    0.005218348120082474,
    -0.0022057545123907786,
    0.008859794004736217,
    -0.01393309870852027,
    0.0,
    0.0,
    -0.005868569676307267,
    -0.023890632268227796,
    0.026517896689901208,
    0.005531157468308879,
    -0.006299380589619511,
    0.028536499662893844,
    0.0,
    0.017294486617070257,
    0.01598506530007682,
    -0.0115569322413891,
    -0.005918438726223574,
    0.018232940360848948,
    -0.004867809018126386,
    0.0,
    0.0,
    -0.005927566342914789,
    -0.024070789881019995,
    0.03060298999734755,
    9.881805004257688e-05,
    0.0005966502231260418,
    -0.004161009155189463,
    0.0,
    0.010003470291063568,
    0.0026204482155391816,
    -0.005479463880827437,
    0.004985408779527611,
    -0.0423755850769849,
    -0.006952971659246494,
    0.010134326525544747,
    0.0,
    -0.017545756259130744,
    0.0,
    -0.012434627608701282,
    0.019409171086201077,
    0.0,
    0.002643160117211372,
    -0.00841218530263735,
    -0.004558454962194616,
    0.023823370721807898,
    0.006790413805737941,
    0.0,
    -0.022666166397880372,
    0.004463568531925973,
    -0.030741967305615677,
    0.0563785036158844,
    -0.00037558559884162115,
    0.0,
    0.0,
    0.021110569135970897,
    0.00899215767052939,
    -0.011392735266233522,
    -0.025427888872701997,
    0.0,
    -0.0012466440349343658,
    -0.007373251957341785,
    0.0,
    0.0,
    0.013563447232188348,
    0.015462777709956962,
    -0.0018162458757677886,
    0.018843794220646335,
    0.0,
    0.011885475629460972,
    0.0,
    0.012688235246806536,
    0.0,
    -0.008310465581011256,
    -0.012583430799414614,
    -0.0016390749023126277,
    0.02735994648900075,
    -0.008309425587597853,
    0.0,
    0.008298461938421604,
    -0.02583815552737604,
    -0.008801562568587938,
    0.009428052377377025,
    0.0,
    0.004663034861861549,
    -0.034422191292493194,
    -0.019207366465339562,
    0.014587424441418152,
    0.0,
    0.0,
    0.0,
    0.0,
    0.023278348414708532,
    -0.007994888037217792,
    -0.006176969974391963,
    -0.0101527674019101,
    0.012530933471276328,
    0.004173910770979835,
    0.02441349504874578,
    0.001651553705663371,
    0.0,
    0.026013539096350995,
    -0.006622816597735937,
    0.0,
    0.025357021405961785,
    -0.0031298646540855075,
    0.002910301862849763,
    0.06821114403423999,
    -0.021606406429647423,
    0.04323565757840375,
    -0.00874919994123315,
    0.005483196215828593,
    0.04179945716010759,
    0.011127243515117421,
    0.0,
    0.00491085372990677,
    0.0,
    0.009118829948091559,
    0.0,
    0.0,
    -0.04167731391436148,
    0.0,
    -0.0011598875998972762,
    -0.0037973843902541766,
    -0.026143053326471193,
    -0.024886400364414637,
    -0.02483729354205041,
    -0.017842096209065444,
    0.030734171817017784,
    -0.016805621079942625,
    -0.02689581074137941,
    -0.0037845668066754453,
    0.0,
    0.0,
    -0.0004304455240809202,
    -0.006003071202279777,
    0.0,
    0.05159228236182002,
    0.032535093283567434,
    0.01391406174182779,
    0.005337139005920423,
    0.0020671993039404553,
    -0.018988794301533524,
    0.005013398455015659,
    0.0,
    0.0,
    0.03315820365209094,
    0.01574606347435813,
    0.0,
    -0.03273792899641245,
    -0.018642220234605364,
    0.0385207669116252,
    -0.014974933128621297,
    0.0,
    0.0037046195793295237,
    0.0,
    -0.0005133671701735,
    0.0,
    0.0,
    -4.03039973002552e-05,
    -0.01052192194452825,
    0.010764060565122188,
    -0.01663847512176826,
    -0.0048052198703064115,
    0.03463901460282979,
    -0.0037847822368025,
    0.0008453974455187564,
    0.009147852561759644,
    0.0,
    0.0,
    0.0,
    -0.008483768578072112,
    0.02498922602084044,
    0.005938505524714209,
    0.0,
    0.02373877480932715,
    0.01145415769987501,
    0.007230892469996358,
    0.016486926863742098,
    0.0003673524606667781,
    0.01796294550685146,
    -0.00143980318306779,
    0.002767323467623108,
    0.0005442168761458183,
    -0.008597220713577637,
    0.014336554124572671,
    0.0213847462378991,
    -7.136626846963114e-05,
    -0.0155453221844493,
    -0.00457728190864459,
    -0.003157962305176023,
    0.0,
    0.010660927116196954,
    0.0,
    -0.010441850152629169,
    -0.023312785254106825,
    0.0,
    0.014045378763408198,
    0.0,
    0.0,
    -0.0141317336323219,
    0.015768536938114554,
    0.04121180713066699,
    -0.010514593797697447,
    0.0,
    0.03218350709659775,
    0.0,
    0.018343618015062384,
    -0.007835673695169725,
    0.00663206103906035,
    0.0,
    -0.00961328379833109,
    0.0,
    -0.0010559747186416463,
    -0.009307370925955951,
    -0.03917752587514843,
    0.0,
    -0.0075514637130578675,
    -0.038639237612574207,
    0.004768009341877233,
    0.0,
    0.0,
    0.0013458458975721052,
    0.03213984250890361,
    0.04775923554603272,
    -8.864418440797781e-05,
    0.0,
    0.02943650855812682,
    -0.01682731282021994,
    0.0,
    -0.01571295620609452,
    0.021147392702425397,
    -0.012783068833250137,
    0.00449050746047362,
    -0.01942481394697493,
    0.02940535700954531,
    0.0,
    0.0005984140051844117,
    0.0,
    0.0,
    0.0,
    -0.0019530643460438804,
    0.0,
    0.006716483273407804,
    -0.003014557778261215,
    0.0006761318358166963,
    0.0,
    0.004903485584626923,
    -0.014060595253291727,
    0.0,
    0.0,
    0.01608219551563767,
    0.013921623028336506,
    0.0,
    0.002156864903384706,
    0.0,
    0.0023178178793528234,
    0.013114235990638946,
    0.034332840915442385,
    0.0,
    0.0,
    0.0,
    0.0,
    0.0,
    0.00411883559845354,
    -0.002643328980732334,
    0.03223178017241322,
    0.013478122731172765,
    0.004943485593107302,
    0.01627101203656455,
    0.0,
    0.0,
    -0.013774673867284098,
    0.02276462040050768,
    -0.00015251777203890377,
    0.035379853286895926,
    0.0,
    -0.017934166666380043,
    0.0,
    0.005109746845146179,
    0.014746806944882144,
    -0.01818366012461406,
    0.015188852099190808,
    0.00579293589563205,
    0.010649800843673235,
    0.02200210881787897,
    -0.016319884911400618,
    0.027451259548158316,
    -0.0051019047980532155,
    0.014423967171221293,
    0.0,
    -0.019534738186077687,
    0.024893579684597475,
    -0.01067826476560476,
    -0.008351511877047336,
    -0.008795099691666398,
    0.021183916879977362,
    0.025901271750327883,
    -0.011427202496207517,
    0.04612522860987271,
    0.0,
    0.0,
    -0.005639454524753401,
    0.0,
    0.0,
    0.0,
    0.026039300236491432,
    -0.020208841385538263,
    0.0,
    0.016414609565647754,
    -0.0023203709635321455,
    -0.029147093800993243,
    -0.005111341409176035,
    -0.0073866128885602894,
    0.0,
    -0.010818208939504992,
    -0.022552641926087448,
    0.0,
